2219 100
의 -0.39318565 0.39379662 -0.060474627 0.22240858 0.3471842 -1.0158999 0.25725165 1.4304388 -0.69404936 -0.31692448 -0.2717428 -0.97193116 -0.2943825 0.3107493 0.19645332 -0.55708003 0.23611625 -0.3037663 -0.08073464 -1.0369309 0.3783349 0.0060405796 0.16003841 -0.39034432 -0.13776296 -0.11288571 -0.54087555 -0.17250958 -0.57432556 0.21280926 0.79812765 0.013349233 0.1757968 -0.5463988 -0.2944841 0.6948303 -0.07141348 -0.29765606 -0.34782752 -1.0607748 0.027096475 -0.62469405 -0.40585768 -0.015396905 0.6375784 -0.24096785 -0.45145234 -0.3786592 0.4055667 0.53755003 0.24803631 -0.5445488 -0.20812917 -0.05233487 -0.4170782 0.29958427 0.33806798 -0.28703398 -0.34468022 0.20555069 0.10930057 0.25579986 0.050915882 -0.3282567 -0.52451307 0.59933704 0.47105047 0.5532312 -0.90417415 0.66918397 -0.34395993 0.35382852 0.64107215 -0.129914 0.58591604 0.23516135 0.076410435 0.018981235 -0.51751316 -0.065896384 -0.44587815 -0.20689006 -0.5003976 0.7684135 -0.25226524 -0.10529342 0.17812005 0.505181 0.6204471 0.19059518 0.8773963 0.36505413 0.28410846 0.23361345 1.1702882 0.37293962 0.46251798 -0.5775217 0.22049943 -0.16642179
을 -0.41434702 0.40428796 -0.06368329 0.22355182 0.37859854 -1.0386454 0.25831723 1.4509083 -0.70494425 -0.32900402 -0.28301063 -0.9980518 -0.29088083 0.31819543 0.20484917 -0.5585387 0.2438466 -0.2910202 -0.07697871 -1.0436956 0.37982082 -0.01338565 0.16146919 -0.41182414 -0.13553521 -0.105735905 -0.56075203 -0.17863482 -0.5830321 0.23099306 0.8241438 0.016319823 0.16763943 -0.5564118 -0.29830775 0.716705 -0.079465106 -0.28135675 -0.34151247 -1.0564903 0.050072808 -0.6512456 -0.4141217 -0.010527672 0.6476762 -0.24112785 -0.44004375 -0.40033823 0.40554222 0.5378688 0.27223986 -0.57290816 -0.21159048 -0.04799979 -0.43840036 0.31754717 0.346277 -0.283979 -0.34574446 0.21007493 0.104470514 0.2611179 0.05607304 -0.3327925 -0.5236914 0.6143276 0.47871533 0.54405487 -0.90492636 0.6802298 -0.3556818 0.33910343 0.663197 -0.10798891 0.592208 0.23430589 0.06019358 0.012220536 -0.50968087 -0.06279389 -0.45467123 -0.20871173 -0.5100853 0.7592187 -0.24780701 -0.11427185 0.17870146 0.50080246 0.64076567 0.17973807 0.8864971 0.36953363 0.28380284 0.2292581 1.1628277 0.37689182 0.4764256 -0.5745801 0.2058229 -0.17179391
은 -0.4338665 0.43264416 -0.0857204 0.23343821 0.40115172 -1.0899161 0.26696274 1.5457711 -0.7579478 -0.3346435 -0.31104702 -1.0673503 -0.30500147 0.33277518 0.22598672 -0.6167643 0.25681105 -0.32209882 -0.08724584 -1.1205907 0.39709443 -0.0072766664 0.15836455 -0.43633518 -0.14241897 -0.12408601 -0.5770888 -0.19161405 -0.62708795 0.24331146 0.88315314 0.009938138 0.16821094 -0.58858913 -0.33258066 0.7567092 -0.09215496 -0.3149459 -0.37719464 -1.1453669 0.034430854 -0.6866187 -0.43476784 -0.0029258458 0.70278597 -0.26175228 -0.47686332 -0.42704982 0.42749643 0.575287 0.28635433 -0.6024659 -0.23215786 -0.06490537 -0.47514886 0.32453907 0.3582877 -0.30966023 -0.3818025 0.208985 0.12391259 0.27246812 0.06725157 -0.3534281 -0.5766259 0.6560541 0.51439697 0.5956857 -0.9814791 0.7266074 -0.37205142 0.3764414 0.7044799 -0.12636551 0.62617624 0.26500505 0.083797276 0.019711105 -0.56128025 -0.06414684 -0.48230377 -0.23741278 -0.56066424 0.8235118 -0.26745892 -0.12606181 0.18097137 0.544658 0.68775594 0.1979713 0.9443519 0.40523526 0.31589904 0.25379473 1.270785 0.41088971 0.5152284 -0.6161742 0.24823208 -0.1971217
한 -0.4114345 0.41127995 -0.07067594 0.2062178 0.37201765 -1.0239987 0.26079708 1.4494853 -0.69112355 -0.32813746 -0.26771194 -0.9714593 -0.28075424 0.2950682 0.22224467 -0.5673725 0.25117254 -0.31020027 -0.08052636 -1.020594 0.37682533 -0.012714154 0.16896218 -0.37637144 -0.15150817 -0.104761615 -0.5316574 -0.1799881 -0.56301904 0.22083901 0.81132245 0.013534585 0.14711107 -0.5426724 -0.28364658 0.7213413 -0.07060322 -0.29920685 -0.36313748 -1.0452322 0.040755853 -0.62327343 -0.38956198 -0.006603547 0.65237033 -0.24592951 -0.44009653 -0.3935083 0.39251542 0.52513546 0.26731706 -0.552955 -0.22396415 -0.06636891 -0.43916723 0.30925563 0.32993796 -0.26463047 -0.32807535 0.18914056 0.11129552 0.26805738 0.070051216 -0.32434767 -0.5169328 0.58378464 0.4655036 0.5537952 -0.8943404 0.6502419 -0.33769077 0.33633336 0.6360615 -0.09856872 0.5831473 0.2313223 0.06180493 0.028385544 -0.51990837 -0.049963266 -0.44903827 -0.19980527 -0.49369645 0.7636867 -0.24764644 -0.10534616 0.18887228 0.5170941 0.6237825 0.17269869 0.86884546 0.3642952 0.27670923 0.23169556 1.1681277 0.36839324 0.48242816 -0.5810588 0.21634626 -0.1856488
는 -0.4681692 0.45881757 -0.09051179 0.24815302 0.41998386 -1.1667073 0.2889713 1.6489853 -0.80487305 -0.35564154 -0.33657372 -1.1299276 -0.34134856 0.35580584 0.22998114 -0.6583518 0.26864576 -0.35022652 -0.07080604 -1.1910688 0.43544546 -0.009391377 0.17523389 -0.44675055 -0.1624569 -0.12300427 -0.62761974 -0.20401733 -0.6697093 0.2565538 0.9471458 0.026734987 0.1864536 -0.6308364 -0.33446726 0.8027159 -0.10463284 -0.3307066 -0.40580583 -1.214516 0.04675062 -0.7384553 -0.47431907 -0.002375092 0.7505776 -0.29141685 -0.50609046 -0.45119616 0.46666226 0.60584986 0.3045863 -0.63403076 -0.22477642 -0.0650997 -0.49790302 0.35286897 0.3696977 -0.3340835 -0.40165517 0.2146669 0.13325487 0.28933424 0.06030448 -0.37212563 -0.6074929 0.6859243 0.543639 0.6375308 -1.039173 0.7812957 -0.40412176 0.39816713 0.74162656 -0.13541628 0.6724384 0.2841955 0.07198454 0.027691683 -0.5824426 -0.07554086 -0.5266077 -0.25095543 -0.5852205 0.8783574 -0.29100978 -0.13352965 0.21069941 0.5975386 0.7124449 0.2069713 1.0156968 0.4167669 0.32894453 0.27188948 1.3426474 0.42270312 0.55020595 -0.65070957 0.2528579 -0.19994287
에 -0.42731556 0.4207081 -0.073830314 0.21752632 0.36738786 -1.0645175 0.2674908 1.5021915 -0.72858727 -0.33915946 -0.30109918 -1.030329 -0.31315008 0.30566436 0.20491044 -0.5975039 0.23582198 -0.32495043 -0.079360634 -1.0764414 0.37157032 -0.006996588 0.16592848 -0.4006519 -0.1550875 -0.12339051 -0.5656175 -0.2045146 -0.5955721 0.2398183 0.85165393 0.0070106504 0.16521223 -0.5732 -0.31295067 0.7451508 -0.082133666 -0.3000621 -0.35894826 -1.1127468 0.050875936 -0.67279464 -0.43312165 -0.008726121 0.67332476 -0.26369658 -0.45575243 -0.40108263 0.4156907 0.55672604 0.27616018 -0.5898823 -0.20607126 -0.047995176 -0.46047285 0.32267335 0.356091 -0.3059406 -0.3641688 0.19715352 0.1261232 0.2674214 0.06836469 -0.35214964 -0.5408574 0.62756324 0.48682064 0.5743529 -0.94624513 0.6799815 -0.36093906 0.3634287 0.6801798 -0.11533186 0.60870236 0.26350942 0.056364805 0.019266821 -0.5361175 -0.057568572 -0.4497183 -0.22789197 -0.52491 0.7789671 -0.25599957 -0.12383766 0.17251873 0.54067445 0.65034395 0.19450575 0.92276734 0.3931379 0.28356445 0.24443918 1.2282974 0.39332092 0.49302065 -0.60594463 0.2340758 -0.1889747
를 -0.4205804 0.41610783 -0.07343918 0.2313754 0.38427278 -1.083073 0.27507123 1.5244418 -0.73972857 -0.33942154 -0.29407957 -1.0422755 -0.3044963 0.33599174 0.21087632 -0.59995496 0.2623491 -0.3170785 -0.070989385 -1.1035843 0.40188366 -0.0070505254 0.17039758 -0.417375 -0.14659233 -0.109833315 -0.5818966 -0.19562803 -0.60862625 0.2303865 0.8691205 0.034221243 0.17153223 -0.5732205 -0.3198132 0.7519158 -0.09744147 -0.3209416 -0.38127756 -1.1353794 0.048858903 -0.68105316 -0.41949713 -0.018313216 0.6863984 -0.25355378 -0.47970086 -0.43132305 0.42270818 0.5615623 0.27644297 -0.5987641 -0.23059031 -0.053090695 -0.46758908 0.32177952 0.34853116 -0.31021982 -0.37270036 0.20025405 0.11585462 0.26648644 0.065248914 -0.34169307 -0.5581882 0.64056 0.48790973 0.5757683 -0.96331954 0.70532334 -0.36906978 0.3709617 0.68551207 -0.11952136 0.6260478 0.2471559 0.07533683 0.022769485 -0.5499794 -0.052719977 -0.4682132 -0.22900929 -0.54763556 0.81286824 -0.26399103 -0.12412392 0.19468603 0.5407446 0.65913993 0.19498366 0.93210566 0.3900577 0.2923896 0.25055495 1.234854 0.39677534 0.5120401 -0.61227584 0.23034634 -0.17941609
수 -0.39325675 0.38913724 -0.034122854 0.25766057 0.36219248 -1.0567628 0.25863713 1.4463209 -0.7409725 -0.34924212 -0.3155326 -1.0220069 -0.284124 0.31322002 0.21255808 -0.59433675 0.25707072 -0.31818342 -0.08369925 -1.0852079 0.3892616 0.028727688 0.1514327 -0.4405833 -0.15978077 -0.06355018 -0.5873398 -0.14685315 -0.61383027 0.25610396 0.82056606 0.054375365 0.17189546 -0.57745105 -0.3141252 0.7211921 -0.102305755 -0.29420552 -0.39213288 -1.0654149 0.061542124 -0.66209155 -0.42095718 -0.008755908 0.678954 -0.267405 -0.4728749 -0.41949752 0.44487378 0.5478871 0.241687 -0.56927395 -0.17055263 -0.08057209 -0.4594404 0.35678646 0.30655017 -0.27765992 -0.35992122 0.2208179 0.13118161 0.2539903 0.0420164 -0.2977834 -0.52246815 0.6171433 0.4418815 0.5930989 -0.9227992 0.69353247 -0.33764416 0.35412538 0.69112736 -0.13981843 0.58493525 0.24612176 0.08753268 0.00421874 -0.49935502 -0.0794311 -0.49939314 -0.21474113 -0.5622689 0.79203916 -0.2528229 -0.13478504 0.19866055 0.5704832 0.66647243 0.16855532 0.92200947 0.36378726 0.26934466 0.25499326 1.1719375 0.38589007 0.46968657 -0.593082 0.22845735 -0.19854306
하는 -0.4408838 0.44073388 -0.07413835 0.24533431 0.3974996 -1.0909588 0.28237754 1.5368799 -0.75580037 -0.33289364 -0.29998517 -1.0603184 -0.30651012 0.3270169 0.23273534 -0.6079207 0.24275477 -0.33694702 -0.08398588 -1.1117412 0.4052267 0.009835461 0.17175913 -0.43079013 -0.14442639 -0.11837643 -0.5824939 -0.20889352 -0.6137703 0.22812492 0.8866696 0.013732588 0.17450467 -0.5713696 -0.31680202 0.7631508 -0.09513633 -0.30767402 -0.37251303 -1.1534396 0.035344005 -0.6853349 -0.43408573 -0.011287779 0.69570065 -0.26677403 -0.47751734 -0.4156742 0.42652792 0.5716661 0.28373042 -0.597531 -0.22266084 -0.059459124 -0.45758757 0.33339036 0.363111 -0.29731816 -0.36923686 0.20411065 0.11019211 0.27568877 0.066082455 -0.35535824 -0.5773619 0.6392847 0.4998156 0.59571236 -0.9766169 0.7245479 -0.38835815 0.3642533 0.7012502 -0.121911734 0.61623204 0.2473187 0.064069524 0.012530622 -0.5650078 -0.06454911 -0.4828861 -0.23510727 -0.5398103 0.82321626 -0.259128 -0.11587302 0.18964921 0.547433 0.67158765 0.20360026 0.939962 0.3962291 0.30355385 0.25582007 1.267252 0.41160345 0.5162106 -0.60718375 0.24256435 -0.19631277
인 -0.4117619 0.39865988 -0.0862417 0.23423883 0.36197436 -1.047561 0.250644 1.4704711 -0.707948 -0.32298544 -0.28673217 -1.0076084 -0.3057274 0.3161279 0.20359464 -0.56227773 0.24268185 -0.3303636 -0.06181717 -1.0574639 0.38321006 0.006954812 0.14058675 -0.40471515 -0.13160579 -0.11796663 -0.5625515 -0.17810807 -0.586529 0.21830848 0.8447059 0.022508083 0.1706817 -0.53977853 -0.31656963 0.7256175 -0.0846035 -0.2962406 -0.35756138 -1.0759193 0.0455788 -0.6398079 -0.41648713 -0.014459605 0.6585825 -0.2491189 -0.459337 -0.39365834 0.4125328 0.552007 0.26905137 -0.5536755 -0.21102062 -0.041096237 -0.43580627 0.30402 0.33541486 -0.29189062 -0.34950227 0.19258437 0.10920295 0.2730863 0.064986385 -0.33531252 -0.5486274 0.60474557 0.4710186 0.5425571 -0.9180239 0.6768066 -0.35166728 0.35383415 0.6534077 -0.13622199 0.5996746 0.23970251 0.06776654 0.009524774 -0.5190354 -0.056993492 -0.4537557 -0.21777432 -0.52052724 0.7924566 -0.2528157 -0.11993539 0.16616298 0.5230701 0.6478483 0.19424988 0.8870824 0.3930287 0.2929394 0.25340182 1.2072042 0.36697668 0.47464988 -0.5719252 0.24152125 -0.1736232
시작 -0.3104281 0.31771147 -0.033663403 0.1506951 0.2860832 -0.8488581 0.19888406 1.1882488 -0.5791263 -0.27641192 -0.20984417 -0.80303115 -0.20998648 0.23962002 0.1820716 -0.45468488 0.20348355 -0.2533437 -0.048431832 -0.8594235 0.30422783 -0.013666789 0.14064114 -0.32958785 -0.13200726 -0.08833064 -0.44859987 -0.1527965 -0.45205936 0.18512993 0.6575406 0.014712018 0.15663779 -0.43015492 -0.22759223 0.5908031 -0.05958055 -0.23894036 -0.30382594 -0.8686 0.025692495 -0.5096695 -0.34047362 0.012843955 0.5147813 -0.21846586 -0.37141433 -0.31901866 0.31267112 0.43197185 0.20868087 -0.45449933 -0.19758373 -0.045384184 -0.35051557 0.2511365 0.25312632 -0.22633646 -0.24983206 0.16091053 0.07039968 0.2091955 0.04981771 -0.25940782 -0.4412376 0.49528366 0.3612906 0.43401656 -0.7287627 0.53379923 -0.27557418 0.29487425 0.5121035 -0.06323287 0.48403057 0.20523438 0.07578151 -0.005186514 -0.42477176 -0.02148291 -0.3536569 -0.15287521 -0.3987168 0.64140093 -0.22302827 -0.078650415 0.12883642 0.42750695 0.5307641 0.16290998 0.7299514 0.30314866 0.22694194 0.19868484 0.9407652 0.2971268 0.4149776 -0.4737174 0.18716294 -0.15974876
들 -0.34662053 0.36691135 -0.06120919 0.20152953 0.32307914 -0.916998 0.22329298 1.2880374 -0.6236904 -0.28577772 -0.24622141 -0.8752449 -0.26443362 0.26893002 0.181941 -0.50962704 0.20491567 -0.28430694 -0.07183336 -0.934373 0.32680288 -0.009793741 0.13638148 -0.36491188 -0.1395647 -0.10768108 -0.49472898 -0.15359248 -0.5096768 0.20042191 0.72347784 0.0059802504 0.14658867 -0.48348814 -0.2655609 0.62600625 -0.073148504 -0.2645271 -0.32262495 -0.9564704 0.02624074 -0.57201684 -0.3557044 0.0036606302 0.57043195 -0.22053197 -0.38278505 -0.35153362 0.35258427 0.48597714 0.23613833 -0.5039721 -0.17487858 -0.04388964 -0.39150783 0.26939434 0.29784977 -0.24513897 -0.30994856 0.17411557 0.10324675 0.22991231 0.053227685 -0.28860182 -0.47606274 0.5454778 0.42908022 0.5009447 -0.81709075 0.5984131 -0.3140609 0.32307017 0.5804804 -0.10300901 0.5230563 0.21779667 0.054038994 0.025298888 -0.4640555 -0.062585816 -0.40054867 -0.17368793 -0.4648005 0.6705508 -0.2120174 -0.10124652 0.1439417 0.44740716 0.570484 0.1706082 0.78780955 0.32598227 0.23837157 0.21375139 1.0475415 0.32416666 0.410855 -0.5119902 0.19595736 -0.1574291
이 -0.36014754 0.35034513 -0.057646126 0.18247953 0.3282848 -0.9097909 0.22404532 1.2984293 -0.6111463 -0.2921158 -0.2602272 -0.8920101 -0.27081865 0.27087146 0.17346203 -0.5152915 0.21281375 -0.27347517 -0.05539534 -0.92373073 0.328612 0.0014014455 0.13504753 -0.34525368 -0.12597339 -0.088706404 -0.5015304 -0.15181455 -0.51799834 0.20918906 0.71947855 0.021815585 0.15491481 -0.48960543 -0.27247256 0.62625486 -0.08343563 -0.26985148 -0.3184418 -0.9567029 0.030211177 -0.5632518 -0.36414889 -0.0073334402 0.56949383 -0.23506515 -0.38652852 -0.36264074 0.3527726 0.48649585 0.2399812 -0.5073524 -0.18501292 -0.053138215 -0.38521037 0.27178982 0.29357535 -0.2519128 -0.299348 0.18275309 0.090466276 0.22586009 0.061552674 -0.28692824 -0.47786736 0.5401133 0.43063116 0.49394533 -0.8192506 0.5988567 -0.30099592 0.3174876 0.58713126 -0.11318359 0.5285301 0.2164631 0.0687844 0.005083748 -0.47348005 -0.055798166 -0.4127104 -0.17980862 -0.45852813 0.696873 -0.23203589 -0.1044206 0.1638698 0.46091056 0.559348 0.16202967 0.7946243 0.33386716 0.26143295 0.20384747 1.0500479 0.3362382 0.43243894 -0.5038151 0.21312644 -0.15017508
된다 -0.40569633 0.39974365 -0.08503317 0.19827831 0.3555528 -0.9961452 0.23355073 1.3894717 -0.6746396 -0.30721298 -0.2847651 -0.94164824 -0.29523504 0.290994 0.21298051 -0.5373359 0.24221617 -0.27997127 -0.060967594 -1.004453 0.37051436 -0.0019651628 0.15296456 -0.3686807 -0.11735524 -0.09672905 -0.55148643 -0.18618594 -0.5552183 0.2253849 0.79541844 0.024309328 0.17392935 -0.53069293 -0.27829665 0.6802944 -0.10055886 -0.2700011 -0.34221822 -1.0314643 0.034552377 -0.6203626 -0.386093 0.0006413391 0.62161547 -0.25792298 -0.42894515 -0.38696238 0.40459383 0.51268154 0.25305694 -0.5366664 -0.2088915 -0.04364954 -0.42309466 0.30782914 0.3301696 -0.27803808 -0.3309609 0.1991467 0.12287836 0.2658783 0.060434695 -0.3033204 -0.49830776 0.58099186 0.47199118 0.5349675 -0.8617583 0.64008385 -0.34615707 0.3187262 0.60897046 -0.11520462 0.58549404 0.242388 0.060713895 0.03472325 -0.49673548 -0.05928399 -0.42773083 -0.20482042 -0.4767265 0.7510079 -0.23557901 -0.09522734 0.17828637 0.5089014 0.6028163 0.16550525 0.86824113 0.37068725 0.2725816 0.22527415 1.1225607 0.34894413 0.47267705 -0.55505973 0.20348434 -0.15271339
이야기 -0.33717912 0.35434923 -0.061694175 0.17624392 0.32023287 -0.8792967 0.21839654 1.2399944 -0.58514816 -0.27510852 -0.235005 -0.8564577 -0.26381508 0.25669235 0.17471847 -0.47685903 0.21075007 -0.2786555 -0.051615097 -0.8970736 0.33502036 0.013316856 0.1312505 -0.3435062 -0.12908866 -0.091100104 -0.46275204 -0.1623625 -0.48126042 0.18518859 0.6935474 0.010947036 0.13678974 -0.47309828 -0.2604333 0.5931087 -0.0609488 -0.24530636 -0.30357942 -0.9024332 0.04219378 -0.55081207 -0.3373623 -0.006118789 0.55541927 -0.2005694 -0.39062634 -0.33897117 0.34030235 0.4586695 0.22729242 -0.46994567 -0.17150657 -0.053605475 -0.3671816 0.25675002 0.30017686 -0.2300111 -0.30095732 0.1693594 0.086821504 0.2135292 0.04513531 -0.27005208 -0.4482821 0.5205887 0.39990368 0.46295047 -0.76813823 0.573097 -0.3073806 0.2842707 0.5602851 -0.10844633 0.49893144 0.19172983 0.06876171 0.020416338 -0.4405341 -0.04548994 -0.39805096 -0.17790955 -0.43197218 0.65086174 -0.20618427 -0.089445405 0.15380374 0.45179483 0.5349714 0.15222411 0.7672342 0.31995046 0.2405212 0.21001287 1.0034425 0.31312925 0.4129873 -0.479344 0.17970103 -0.14003317
된 -0.42747727 0.4200361 -0.070306614 0.23236603 0.37480143 -1.0659302 0.2529537 1.4964374 -0.72240806 -0.31844243 -0.29879218 -1.0307319 -0.31246424 0.32398486 0.20457311 -0.58741975 0.23562695 -0.30844817 -0.06808002 -1.0634884 0.37935582 0.0072080507 0.14855795 -0.40923822 -0.14886023 -0.11646588 -0.5708657 -0.18089268 -0.5954063 0.22076984 0.8365807 0.010692791 0.17385419 -0.55214286 -0.3154287 0.7409292 -0.08061694 -0.31616148 -0.37679574 -1.0915074 0.047290485 -0.66744614 -0.42818475 0.0010929932 0.67387575 -0.24823326 -0.46417573 -0.42131862 0.41799048 0.54057664 0.2687438 -0.5813288 -0.20107083 -0.042877894 -0.4507542 0.33077064 0.35394147 -0.297133 -0.3464308 0.21254322 0.12148809 0.26331887 0.050472677 -0.34102607 -0.53064233 0.6124127 0.48093382 0.57546085 -0.92809063 0.6973427 -0.37591013 0.34882805 0.67369354 -0.13279921 0.6132054 0.26280758 0.06658166 0.016420169 -0.5339233 -0.06666547 -0.4687765 -0.2172381 -0.5291239 0.792538 -0.2648902 -0.10345701 0.17211924 0.524347 0.65537286 0.20037943 0.9064886 0.38746756 0.28240252 0.23504034 1.1997566 0.39046675 0.5004027 -0.5816349 0.23592582 -0.17305331
사람 -0.3445047 0.3300292 -0.053132933 0.18639036 0.3179058 -0.8706001 0.20967658 1.2338794 -0.5910301 -0.26879692 -0.24494927 -0.8515778 -0.25569502 0.27141067 0.16319148 -0.47312707 0.18790212 -0.26411173 -0.06387601 -0.8934761 0.331687 0.009926382 0.1325814 -0.3312028 -0.12081269 -0.07990433 -0.45612332 -0.16356204 -0.49568018 0.19085707 0.6958779 0.010607307 0.13910452 -0.47435856 -0.25028324 0.60688025 -0.06225944 -0.25406045 -0.31216374 -0.91547763 0.03185773 -0.557152 -0.3498277 -0.0033309415 0.5574508 -0.2051534 -0.38672554 -0.34466746 0.34963042 0.45962343 0.2185102 -0.48256534 -0.17596214 -0.044557955 -0.3657836 0.26332662 0.2788261 -0.24953938 -0.3071106 0.16909237 0.10229613 0.22285004 0.051459458 -0.2705333 -0.4458742 0.51832384 0.388518 0.47811285 -0.7638302 0.57615244 -0.2880776 0.3073307 0.55454725 -0.105472066 0.4988214 0.19269153 0.06693864 0.0078562 -0.42867482 -0.057021018 -0.38343334 -0.18805154 -0.44664136 0.6380052 -0.21817993 -0.093490735 0.13797654 0.4340842 0.5322488 0.15123501 0.7625451 0.32236362 0.24845812 0.20999749 0.9872844 0.32858363 0.3913399 -0.49156472 0.1808472 -0.14552073
도 -0.4103786 0.41581273 -0.07039493 0.21574885 0.38117248 -1.0470762 0.26558527 1.4600713 -0.7129641 -0.32401466 -0.2964744 -1.0082369 -0.27947754 0.30849323 0.22566403 -0.5913292 0.24099708 -0.31531072 -0.06070471 -1.0561893 0.39615518 -0.0048377747 0.14097303 -0.40680367 -0.14543638 -0.11370397 -0.55172116 -0.19909008 -0.5820253 0.22489157 0.8291015 0.028048936 0.1523674 -0.5505578 -0.29550433 0.7277332 -0.102588065 -0.28903273 -0.35150594 -1.077815 0.050126784 -0.6610723 -0.39971235 -0.0064046895 0.65629476 -0.25393537 -0.453984 -0.40343136 0.4069226 0.5431602 0.27475187 -0.5474159 -0.19363962 -0.058564823 -0.42496848 0.31777444 0.3385113 -0.2762966 -0.3502177 0.2020026 0.108197264 0.25015363 0.041959498 -0.32972485 -0.52435684 0.60494196 0.46972615 0.5553485 -0.90227765 0.66929674 -0.35120693 0.33918208 0.66404414 -0.10972615 0.5967602 0.25214985 0.07966269 0.024755912 -0.51250356 -0.041245375 -0.45903203 -0.20446458 -0.51367795 0.7739919 -0.23657303 -0.10526655 0.18879986 0.52709794 0.6528941 0.18949857 0.90547234 0.37570348 0.29287982 0.2375495 1.1915075 0.39711568 0.47711614 -0.5818754 0.22579916 -0.18633378
가 -0.37096697 0.36683336 -0.078283474 0.20818424 0.35199472 -0.97631216 0.24212897 1.3824562 -0.6654447 -0.3076365 -0.2742312 -0.9408558 -0.2762031 0.30294344 0.20384079 -0.5383297 0.22867538 -0.2834872 -0.050049156 -0.9752771 0.36708006 -0.009248123 0.13885795 -0.3829236 -0.1260273 -0.10597984 -0.53116745 -0.16602786 -0.5353249 0.20700192 0.78753144 0.018137334 0.15304472 -0.51575184 -0.28184876 0.6718188 -0.07865678 -0.26987076 -0.32805526 -1.0209842 0.031889915 -0.6099526 -0.3773469 -0.0034795464 0.60657805 -0.23458835 -0.43156493 -0.37623766 0.3977349 0.5058402 0.24272846 -0.5367753 -0.2030132 -0.050747678 -0.40367615 0.3090831 0.3131601 -0.26495785 -0.31535938 0.1840804 0.10644727 0.25846046 0.06385856 -0.30054253 -0.5085339 0.5845577 0.45009926 0.52992487 -0.8570354 0.640493 -0.32381234 0.3207745 0.6196863 -0.11222261 0.5702986 0.22254848 0.061088383 0.022758536 -0.50216895 -0.062419727 -0.4330915 -0.20255803 -0.48474795 0.7418757 -0.22454548 -0.10548809 0.16304623 0.49665463 0.59371763 0.16721797 0.8493746 0.34627646 0.2722311 0.23595269 1.1169153 0.35651085 0.45871606 -0.54667777 0.21413438 -0.16713354
날 -0.4114525 0.42260265 -0.07134967 0.23522176 0.3652998 -1.0545987 0.27145344 1.4944735 -0.71912974 -0.334216 -0.29503167 -1.0233351 -0.2947664 0.3211836 0.21584721 -0.5852504 0.25266203 -0.33086175 -0.07860025 -1.0733312 0.38523063 0.006520918 0.14509612 -0.41604802 -0.15465403 -0.11158543 -0.5699305 -0.20438384 -0.5894757 0.24026552 0.8471141 0.011561777 0.1692752 -0.5639635 -0.32223216 0.74270386 -0.098090395 -0.31407088 -0.3689723 -1.1149352 0.038505416 -0.65308917 -0.41729477 0.00040149858 0.6715332 -0.25695834 -0.46344393 -0.42148966 0.42094016 0.55673206 0.26488113 -0.58169746 -0.22863351 -0.061044995 -0.4441787 0.33740762 0.35368067 -0.2888152 -0.35134715 0.19879821 0.111728266 0.25849253 0.05214824 -0.34536296 -0.54603636 0.62860024 0.47649452 0.5576367 -0.942612 0.68915534 -0.36654848 0.35427028 0.6712797 -0.13125838 0.60161716 0.2503059 0.07598501 0.021173604 -0.5432481 -0.06260308 -0.46990547 -0.21802491 -0.5247931 0.7967196 -0.24802817 -0.11675478 0.17405707 0.5283955 0.6487009 0.18473154 0.91353977 0.38296917 0.2832783 0.25930807 1.206116 0.37638903 0.48548216 -0.58589923 0.23584066 -0.16907176
위해 -0.41712582 0.4171579 -0.07177451 0.23766533 0.3876517 -1.0635389 0.26356143 1.5085796 -0.725414 -0.33268815 -0.29094857 -1.0273434 -0.294382 0.32824445 0.22148772 -0.6022029 0.24022117 -0.312227 -0.084256075 -1.0844092 0.3964374 -0.00013138514 0.1499113 -0.4076561 -0.14686339 -0.12167387 -0.56552285 -0.19400193 -0.6107576 0.22623625 0.85209167 0.008282298 0.16487756 -0.56607705 -0.3112638 0.7476541 -0.09061817 -0.29486892 -0.3673865 -1.108973 0.04368458 -0.6710986 -0.43219042 -0.004079515 0.67837304 -0.2777291 -0.47508398 -0.41839895 0.42856106 0.566118 0.2841464 -0.59167886 -0.2215517 -0.0546208 -0.4645463 0.33786905 0.35414582 -0.3005932 -0.37049532 0.20034634 0.11700279 0.28217137 0.060904693 -0.354562 -0.56513155 0.6367177 0.4919084 0.56729555 -0.93231326 0.6972691 -0.36126187 0.35707295 0.669817 -0.12284716 0.622683 0.25984102 0.07400364 0.025304126 -0.5452982 -0.057947133 -0.47417137 -0.2182908 -0.5361694 0.79510236 -0.2686169 -0.09658623 0.18434103 0.5353422 0.65465176 0.20463532 0.915811 0.38578433 0.29798874 0.25996563 1.2272629 0.38701326 0.5027536 -0.60276085 0.21424286 -0.18833983
그녀 -0.3649485 0.37115276 -0.050740194 0.2110543 0.3209023 -0.9263658 0.22152011 1.3087671 -0.63336724 -0.2846596 -0.2567971 -0.89596254 -0.25610968 0.27939945 0.18068232 -0.52260286 0.2251296 -0.29187584 -0.067224875 -0.93841374 0.33620623 -0.0034155736 0.13221586 -0.35705167 -0.12593177 -0.0893601 -0.5049093 -0.1654894 -0.51455486 0.20486917 0.74777067 0.0111716315 0.1553623 -0.5060098 -0.27030635 0.63198364 -0.08088043 -0.2777431 -0.3221666 -0.974235 0.032011114 -0.57948625 -0.3665008 -0.010514483 0.57993656 -0.23392318 -0.40362713 -0.3650611 0.3571614 0.48628238 0.24474709 -0.501323 -0.1980274 -0.045330357 -0.4002998 0.27479655 0.3053513 -0.25855926 -0.32504463 0.17385761 0.100232124 0.24273412 0.03927483 -0.28715852 -0.47777867 0.5486975 0.4344741 0.50197643 -0.8232099 0.61189777 -0.31196314 0.3211725 0.5913526 -0.11756828 0.53486943 0.21462256 0.061493956 0.021285806 -0.46362287 -0.042147625 -0.4192767 -0.19920325 -0.45591548 0.6988417 -0.2315764 -0.1009949 0.16306235 0.4692333 0.566155 0.17336804 0.81353104 0.3270291 0.25542232 0.21440488 1.0588663 0.33890316 0.42584053 -0.5103359 0.19112222 -0.15404312
고 -0.41623202 0.414257 -0.064980395 0.2451538 0.3743444 -1.0669674 0.25468603 1.4829105 -0.7227307 -0.34002748 -0.29990047 -1.0332608 -0.28880337 0.32309863 0.2248653 -0.5798023 0.2334304 -0.31800562 -0.059784446 -1.065033 0.39258918 0.012039463 0.14127812 -0.40250868 -0.13255788 -0.09637006 -0.58002484 -0.17897116 -0.58500737 0.23018013 0.8322733 0.032862496 0.15638764 -0.5710827 -0.3038234 0.743836 -0.07998669 -0.3114019 -0.38131663 -1.0823668 0.05202323 -0.6737929 -0.43077865 -0.015896918 0.6705031 -0.2615419 -0.4583006 -0.41380215 0.41502172 0.54057324 0.28853336 -0.5790158 -0.21637022 -0.043647505 -0.44876704 0.34156665 0.33329564 -0.29563135 -0.35888487 0.20359164 0.11117468 0.26597673 0.055105276 -0.3275884 -0.53018665 0.62131006 0.47120842 0.5651358 -0.9380021 0.7027761 -0.37049893 0.35370314 0.6709607 -0.13671513 0.5989476 0.25970837 0.0563 0.011539421 -0.52289 -0.04588002 -0.4772907 -0.21443088 -0.5208055 0.7826695 -0.26290914 -0.10765793 0.18736376 0.54119056 0.6638322 0.19473308 0.92030954 0.37921816 0.2754226 0.25392058 1.2105769 0.37543073 0.4871358 -0.5913176 0.22366998 -0.17546636
작가 -0.41487724 0.40369284 -0.058760766 0.20433137 0.35265285 -1.053699 0.23878038 1.4860055 -0.70849544 -0.3201927 -0.30673128 -1.0136857 -0.3148006 0.32911566 0.23761009 -0.56756926 0.2552759 -0.35106045 -0.046749614 -1.0769144 0.40754154 0.02250288 0.16589667 -0.4255036 -0.16771123 -0.09918858 -0.5560224 -0.18453485 -0.5728196 0.22528285 0.8645806 0.009768246 0.14497453 -0.571529 -0.30706823 0.7040127 -0.070448995 -0.30121112 -0.38188645 -1.0692006 0.058989782 -0.64373016 -0.3947096 -0.035670936 0.6585056 -0.26639268 -0.47214937 -0.402485 0.41028073 0.5411755 0.26905012 -0.55974483 -0.19436674 -0.03886804 -0.44871768 0.33424202 0.35794452 -0.26179984 -0.35747617 0.1880193 0.10204095 0.2609947 0.037179083 -0.31292972 -0.5434615 0.6230873 0.48739573 0.53875506 -0.90404755 0.707893 -0.3642167 0.34844697 0.6472894 -0.14534333 0.61816686 0.23431498 0.0920526 0.028857008 -0.5351377 -0.049325693 -0.48089108 -0.21977869 -0.51694876 0.8105697 -0.25499877 -0.10443213 0.15810795 0.55982304 0.6267759 0.20495869 0.9232377 0.36284193 0.27358267 0.2282837 1.1961046 0.39180532 0.5195128 -0.5804217 0.22131927 -0.16320851
하고 -0.40527853 0.39355785 -0.06411953 0.21098268 0.34848312 -1.0165249 0.26119953 1.4243193 -0.6939723 -0.31861594 -0.27936125 -0.9660571 -0.28631562 0.30311894 0.19868414 -0.55658 0.23215446 -0.292496 -0.08167662 -1.0237986 0.36142135 -0.002715044 0.13981831 -0.38283932 -0.14321885 -0.11573823 -0.53021884 -0.19124396 -0.5618393 0.21332188 0.81555593 0.029079592 0.15772738 -0.5280392 -0.28514034 0.6893584 -0.07620583 -0.30091688 -0.33637077 -1.0441101 0.034178637 -0.63478446 -0.38756627 -0.014236323 0.6467229 -0.2517956 -0.4264003 -0.3880734 0.40563327 0.52231187 0.2670882 -0.53930265 -0.20097068 -0.051122196 -0.42199662 0.31854507 0.33648255 -0.26499566 -0.33346352 0.20286465 0.120365396 0.25599653 0.049534995 -0.31888202 -0.51886547 0.58654165 0.45139164 0.52923465 -0.890726 0.66867214 -0.34995422 0.3282465 0.6436782 -0.11822377 0.57553214 0.23876655 0.071577325 0.023818899 -0.5069516 -0.05543143 -0.43044946 -0.20551266 -0.50825006 0.75893915 -0.23822366 -0.104346484 0.16911608 0.5140001 0.62735224 0.19006775 0.8704319 0.35145026 0.27707154 0.23635946 1.1556025 0.36013162 0.48335335 -0.57279736 0.22390106 -0.18421914
한다 -0.38745522 0.40089184 -0.068720296 0.2126488 0.35633078 -1.006879 0.2431287 1.422893 -0.6816657 -0.30627492 -0.28972366 -0.9613389 -0.28964192 0.30288935 0.18970181 -0.5539408 0.23626615 -0.29607224 -0.07720944 -1.027579 0.36241916 -0.0023391473 0.136002 -0.3981081 -0.14054917 -0.108521685 -0.54682106 -0.18590671 -0.5646099 0.2276198 0.8066279 0.017981442 0.14959835 -0.541622 -0.2945806 0.70092964 -0.07895871 -0.29387793 -0.34537467 -1.0612582 0.035229824 -0.63631576 -0.39364582 -0.01367737 0.6335427 -0.25394613 -0.43881246 -0.39784497 0.39645395 0.52336186 0.25654107 -0.54915303 -0.2108538 -0.052815977 -0.42454296 0.3024157 0.32021543 -0.2820872 -0.3557093 0.19251086 0.11695004 0.25226018 0.05407476 -0.31745735 -0.5104783 0.59706235 0.47404268 0.5277191 -0.8961643 0.6523931 -0.35444364 0.3302046 0.6285414 -0.124094516 0.5756736 0.23172586 0.054994494 0.022233244 -0.5065431 -0.054593816 -0.43201855 -0.20070277 -0.5047956 0.7570093 -0.24824141 -0.10450644 0.17623015 0.5159701 0.61377937 0.18455662 0.86055166 0.35896838 0.28732145 0.23162712 1.1508526 0.35898736 0.45734516 -0.5534235 0.21036659 -0.16614698
다 -0.32936385 0.3157189 -0.06872557 0.17397869 0.30821508 -0.8044441 0.20748667 1.1515905 -0.5687145 -0.24146432 -0.23212038 -0.7634537 -0.22088763 0.243743 0.15809724 -0.45424294 0.19610757 -0.24819396 -0.049899288 -0.8363118 0.31686768 -0.009557892 0.13364768 -0.3241622 -0.12243781 -0.10127782 -0.4455475 -0.14245474 -0.45878896 0.1930079 0.6517006 0.021287266 0.13707757 -0.42625523 -0.23714375 0.57861996 -0.08613924 -0.22444412 -0.27898684 -0.844212 0.039636344 -0.51157653 -0.32114178 -0.0070647513 0.510639 -0.2056862 -0.34565103 -0.32104096 0.3356748 0.42365527 0.21540381 -0.4401035 -0.16894093 -0.04102457 -0.35168844 0.25641662 0.26489156 -0.22762512 -0.28165808 0.1413854 0.0926844 0.2061208 0.041163493 -0.26228634 -0.4299498 0.48168662 0.38698053 0.43365812 -0.7255382 0.5365301 -0.28470603 0.26137823 0.5100997 -0.093595415 0.46942744 0.17443629 0.06282799 0.026671836 -0.41232976 -0.03634515 -0.354858 -0.15687461 -0.40439346 0.62735796 -0.19615147 -0.08921435 0.13364655 0.42710945 0.51074857 0.14828677 0.7187701 0.29271224 0.22000103 0.1793874 0.91911244 0.2854441 0.38638738 -0.4529828 0.18004075 -0.13616857
남자 -0.3630378 0.37169528 -0.06433868 0.20015691 0.34090054 -0.9299916 0.23490657 1.3047314 -0.62727004 -0.2838985 -0.2519239 -0.9079929 -0.26664704 0.28268057 0.18045034 -0.5209457 0.22013171 -0.29261762 -0.069291025 -0.9320231 0.33487973 0.010206681 0.13584118 -0.35325816 -0.1310651 -0.106219694 -0.5050454 -0.169359 -0.52667737 0.20040861 0.7505916 0.006567178 0.13908051 -0.49936035 -0.27813277 0.6322019 -0.0781636 -0.25641215 -0.31134424 -0.9745613 0.02515971 -0.58462673 -0.3784964 -0.012517392 0.57759327 -0.22163816 -0.4116543 -0.35470223 0.36811557 0.49142677 0.23638307 -0.51695967 -0.18343851 -0.055971693 -0.3874022 0.2861423 0.31383705 -0.25400156 -0.31640252 0.18352969 0.094107315 0.22651602 0.052831423 -0.30048278 -0.4827506 0.54716265 0.4138789 0.49612218 -0.81878024 0.6033401 -0.3157611 0.31766364 0.59094524 -0.11634842 0.5264515 0.20776543 0.051580172 0.012471443 -0.469967 -0.060013503 -0.411889 -0.19262843 -0.45238557 0.6975584 -0.21464075 -0.10695886 0.1478952 0.46707737 0.58030254 0.1709952 0.80342656 0.33688614 0.2563439 0.20621149 1.064384 0.34345442 0.44274643 -0.5158878 0.19090346 -0.16283408
적 -0.347991 0.36266407 -0.08068431 0.20245512 0.31874427 -0.91211355 0.23462081 1.295253 -0.62548566 -0.2789753 -0.26007622 -0.89255667 -0.2550232 0.2937324 0.17298387 -0.5027292 0.22508793 -0.29160416 -0.05861408 -0.9394648 0.35424158 -0.0012432022 0.14032672 -0.3462144 -0.124079205 -0.113790505 -0.49708545 -0.16463935 -0.51457673 0.20366725 0.7521135 0.022583876 0.15960714 -0.5028621 -0.2762116 0.6407658 -0.07430335 -0.26957512 -0.32956478 -0.9684033 0.021239063 -0.5594888 -0.35584378 -0.018137686 0.5905414 -0.21728106 -0.41259027 -0.36324355 0.3633802 0.49750885 0.2247005 -0.5019097 -0.19458365 -0.05282383 -0.387739 0.27247867 0.3009386 -0.2555575 -0.31860808 0.18516761 0.10795697 0.22090349 0.045392293 -0.2918058 -0.49211127 0.5303178 0.41345856 0.48700136 -0.80672187 0.6135262 -0.30897045 0.29635003 0.5898239 -0.10311195 0.5290941 0.20463865 0.058725417 0.013094996 -0.4824338 -0.046937227 -0.40503275 -0.19812027 -0.46887887 0.7045097 -0.23706457 -0.108320475 0.16214162 0.46665567 0.5655187 0.16290478 0.7968153 0.34569135 0.24722846 0.20915823 1.0522922 0.32923675 0.41834065 -0.52951103 0.2172169 -0.14800191
사랑 -0.35599047 0.33916062 -0.061647333 0.18649781 0.32932788 -0.89142334 0.21022384 1.253802 -0.62216514 -0.27351978 -0.25567666 -0.86687255 -0.24913552 0.27747372 0.18974751 -0.5080562 0.21512955 -0.28392345 -0.0673572 -0.91537917 0.33090433 0.0057596504 0.12872246 -0.3443948 -0.113385916 -0.08708415 -0.47983423 -0.14865583 -0.5031904 0.19190763 0.7064302 0.026619265 0.1348318 -0.4783741 -0.25215465 0.6141984 -0.07402922 -0.26390514 -0.30669698 -0.9184088 0.021670429 -0.5644169 -0.34192705 -0.007228582 0.5605804 -0.21387558 -0.4026179 -0.33545837 0.34788334 0.4608122 0.22968823 -0.48471123 -0.18523946 -0.039943237 -0.37739652 0.26568004 0.2995463 -0.23692559 -0.29466897 0.17347957 0.09980204 0.21441448 0.048513707 -0.2714583 -0.46269923 0.5204236 0.40240207 0.47996238 -0.7982753 0.5968758 -0.30303133 0.31118843 0.5643542 -0.115208715 0.50295377 0.19959016 0.06468414 0.023400761 -0.45324615 -0.044092752 -0.40857652 -0.18575102 -0.45707604 0.67726713 -0.21804067 -0.08612666 0.14960271 0.46794012 0.5572858 0.16197966 0.7765536 0.33098596 0.24715866 0.21863604 1.0237089 0.3363351 0.41850498 -0.5102607 0.18332736 -0.15399876
있는 -0.35080686 0.34904313 -0.06505245 0.19726971 0.30849186 -0.8900759 0.2196261 1.2367829 -0.5965562 -0.27236328 -0.2486387 -0.87205696 -0.2440637 0.25810704 0.17587364 -0.5054589 0.20250632 -0.2756731 -0.046626635 -0.89214873 0.3370978 -0.004574966 0.12084464 -0.3417077 -0.12204529 -0.08570333 -0.48413888 -0.15967314 -0.502784 0.17781849 0.71191317 0.02186223 0.15046327 -0.48118111 -0.25763592 0.6067838 -0.06801767 -0.24004367 -0.31501946 -0.8996618 0.026397161 -0.5626058 -0.34519678 -0.008249193 0.5469109 -0.22312331 -0.3674896 -0.34495142 0.34611434 0.46275973 0.22209145 -0.47580186 -0.16858113 -0.029623888 -0.3797432 0.27578178 0.2958609 -0.25619 -0.31211862 0.17363288 0.1097553 0.2164733 0.04693022 -0.27685463 -0.45634648 0.51498824 0.3897192 0.4768802 -0.77991027 0.57554126 -0.2963307 0.28946504 0.5752066 -0.1060677 0.5189505 0.21643104 0.04869112 0.022834454 -0.4386308 -0.051064245 -0.39756027 -0.18577147 -0.45007992 0.6661111 -0.22515555 -0.10267697 0.1558661 0.45242277 0.54967916 0.15608533 0.7644888 0.32306993 0.251808 0.20852904 1.0179785 0.3355078 0.38568386 -0.49001473 0.17490245 -0.16039647
게 -0.37413722 0.35287663 -0.049269922 0.20785083 0.33351195 -0.96416146 0.22035205 1.318651 -0.6285443 -0.3034362 -0.25654772 -0.93013275 -0.25028434 0.28844163 0.1913611 -0.5257707 0.21686548 -0.28598097 -0.051999964 -0.9487945 0.3440295 0.0019560668 0.14141573 -0.3781549 -0.1230128 -0.09295044 -0.52772164 -0.15542184 -0.5385188 0.21604647 0.7493824 0.030401038 0.16519892 -0.51116335 -0.2869552 0.6758399 -0.07493513 -0.280412 -0.3370553 -0.9823433 0.039210632 -0.607071 -0.37022862 -0.0105326455 0.6219046 -0.2238702 -0.4102403 -0.36684516 0.37213764 0.47706592 0.26088783 -0.5072459 -0.17568193 -0.052083593 -0.41844818 0.30231977 0.29030645 -0.25207636 -0.31051204 0.18773781 0.11527067 0.23654817 0.046487123 -0.3016448 -0.46248507 0.5435042 0.41934013 0.50625664 -0.828782 0.62604505 -0.32591707 0.32029006 0.6023297 -0.102452934 0.55799204 0.24049553 0.054847397 0.000678238 -0.46280083 -0.03166654 -0.41489223 -0.20295393 -0.48281187 0.69883925 -0.24033724 -0.102150194 0.15237576 0.47184277 0.6030524 0.18538556 0.8326263 0.34759474 0.24932456 0.21316844 1.088225 0.33191147 0.42483947 -0.5279238 0.20373666 -0.17956609
세상 -0.3517 0.35016036 -0.07289858 0.19459909 0.3281236 -0.91810405 0.21900475 1.2986357 -0.6129409 -0.29267466 -0.2424165 -0.8758777 -0.27559114 0.2742512 0.18674257 -0.50090855 0.20435578 -0.28726336 -0.05796811 -0.9350775 0.32998714 0.0009447476 0.14085369 -0.3626009 -0.12066746 -0.100930005 -0.4885578 -0.15565583 -0.5149576 0.2082864 0.73125994 0.008578652 0.15305361 -0.49269825 -0.26111615 0.63103044 -0.082872145 -0.2750161 -0.3117414 -0.9566819 0.035438117 -0.5845656 -0.36917442 -0.017497739 0.5909286 -0.2300457 -0.39337277 -0.3561102 0.3614867 0.49069932 0.23449856 -0.50910586 -0.18464686 -0.03761203 -0.3765914 0.27650025 0.30299386 -0.2462942 -0.3167065 0.1841464 0.09311453 0.23357235 0.053989764 -0.28851047 -0.47817636 0.54142576 0.42847 0.5044869 -0.81926227 0.6091244 -0.30872956 0.30512464 0.5934525 -0.113801815 0.52505 0.20470807 0.057095155 0.015364654 -0.4695848 -0.06101502 -0.3978092 -0.19532943 -0.4676412 0.69589525 -0.21197097 -0.095908895 0.15445012 0.46578255 0.56387556 0.172764 0.78372794 0.33199424 0.25640976 0.21123302 1.0491488 0.3405534 0.43831047 -0.5095948 0.21098877 -0.16372329
내 -0.37088296 0.37023565 -0.0696937 0.20689271 0.3360969 -0.9624273 0.23877539 1.3559321 -0.6579646 -0.30497655 -0.27027082 -0.914002 -0.28333798 0.30050668 0.19418669 -0.5280155 0.22096312 -0.29755223 -0.061302733 -0.95647556 0.3450214 0.00030951638 0.13995196 -0.36604527 -0.12423135 -0.10647343 -0.50326353 -0.17852315 -0.53650725 0.2170757 0.77284473 0.009152384 0.14718562 -0.51641524 -0.2808234 0.66969234 -0.08897743 -0.26989427 -0.32444686 -0.99972886 0.023314718 -0.60008794 -0.3816056 -0.0064621773 0.6135278 -0.22755162 -0.41857117 -0.36643898 0.36763042 0.49791873 0.24460432 -0.5091539 -0.19761795 -0.0564073 -0.4013773 0.29816905 0.30503553 -0.26806712 -0.32439902 0.17788129 0.09068973 0.2376643 0.045213908 -0.2987438 -0.4933889 0.5603807 0.43526947 0.5039588 -0.8352017 0.6284569 -0.32064122 0.31617162 0.59247947 -0.114266254 0.555889 0.21820459 0.056439266 0.012441849 -0.47548947 -0.052792937 -0.4096663 -0.20539266 -0.4646061 0.70707655 -0.21869804 -0.09818394 0.16281344 0.47793844 0.5980118 0.18139228 0.82002807 0.3338443 0.2708993 0.21865332 1.0822427 0.35342923 0.43731406 -0.5450467 0.2170069 -0.16461103
없는 -0.36632812 0.35226277 -0.07272559 0.18710782 0.31803942 -0.929837 0.20484023 1.2882922 -0.61622095 -0.28750828 -0.25538135 -0.9065922 -0.25304696 0.28736892 0.19066758 -0.5237824 0.20929557 -0.27340254 -0.055439554 -0.9057542 0.3504628 0.015205422 0.124012716 -0.34597367 -0.12691885 -0.08879359 -0.49135527 -0.17116407 -0.517956 0.19280125 0.7172557 0.025426157 0.15975043 -0.49544388 -0.27838555 0.6493202 -0.08295868 -0.26398966 -0.32059383 -0.9356355 0.04224938 -0.5706404 -0.34811848 -0.023527805 0.5769042 -0.21027517 -0.38981226 -0.36567515 0.35974646 0.4723354 0.2214444 -0.50060666 -0.16906057 -0.041526154 -0.3715772 0.28036436 0.30405572 -0.25768134 -0.30603358 0.1549777 0.11043502 0.22721335 0.04419923 -0.28222975 -0.472252 0.5447888 0.40362257 0.49507195 -0.8156232 0.61189425 -0.29155013 0.3036331 0.6010672 -0.116064 0.539307 0.23645887 0.05446506 0.014718309 -0.47042894 -0.035927277 -0.41331702 -0.18655019 -0.46423465 0.6999401 -0.20921768 -0.098556675 0.16261943 0.48168066 0.56312174 0.16959193 0.7928962 0.32775307 0.2603986 0.20473002 1.034175 0.35553107 0.38823205 -0.50864094 0.1883753 -0.15321693
속 -0.36884 0.3721708 -0.061737347 0.20582187 0.33194706 -0.96710503 0.23407179 1.3547902 -0.65693825 -0.30563417 -0.2602356 -0.92161214 -0.28072512 0.2941839 0.1948736 -0.5337197 0.21324122 -0.29589674 -0.06160027 -0.9681004 0.3621591 0.0076032644 0.14579247 -0.38359907 -0.13512792 -0.11192332 -0.50729805 -0.16553417 -0.54970074 0.2122136 0.7778697 0.02005086 0.15003894 -0.52242005 -0.2680618 0.65680593 -0.08853512 -0.2876323 -0.34220877 -1.0099005 0.023755243 -0.60585773 -0.3872992 -0.0117446985 0.619017 -0.2291076 -0.41630957 -0.37427482 0.3906072 0.5037605 0.254101 -0.51393497 -0.2074192 -0.059240982 -0.39482826 0.2999194 0.31485012 -0.25741512 -0.33271596 0.17660117 0.09407874 0.25300765 0.043754973 -0.3188686 -0.50500226 0.57376045 0.43930557 0.50833374 -0.8513118 0.6315852 -0.33097154 0.3192068 0.6157545 -0.11497816 0.5478301 0.22697787 0.073357835 0.0043590665 -0.49772957 -0.04750293 -0.43748057 -0.1986859 -0.4943795 0.73687774 -0.23801304 -0.110963926 0.15974626 0.49063206 0.6014361 0.18481106 0.8340942 0.35323453 0.26958328 0.2251658 1.0961478 0.35213587 0.4546796 -0.5292288 0.20577675 -0.17655611
하게 -0.35470304 0.36996838 -0.06997004 0.18726942 0.31643525 -0.9241679 0.2398774 1.305571 -0.61754435 -0.28464586 -0.24651612 -0.90967184 -0.25238284 0.27152026 0.18070027 -0.50055665 0.21032386 -0.26012117 -0.057533134 -0.9330724 0.32944223 -0.021958629 0.12508579 -0.347752 -0.1410713 -0.0954291 -0.49735427 -0.17688815 -0.52484614 0.19417502 0.7244163 0.01685419 0.17429735 -0.49557844 -0.27814004 0.65837306 -0.060155243 -0.25171912 -0.33981204 -0.96415675 0.020930942 -0.56647855 -0.35996008 -0.009507996 0.5988494 -0.23854856 -0.39359707 -0.3521408 0.3697534 0.49256217 0.23671652 -0.50582 -0.20526066 -0.057698023 -0.3908224 0.26837423 0.2957357 -0.25834468 -0.29619142 0.16650659 0.096367866 0.22962807 0.043272767 -0.2972816 -0.46611804 0.53693867 0.41603845 0.50639725 -0.81934327 0.5976589 -0.3032432 0.3154041 0.58350796 -0.08422958 0.5471848 0.2321956 0.06875546 0.0050266148 -0.45629093 -0.036291588 -0.40980724 -0.1999962 -0.46255642 0.68489903 -0.2263931 -0.11685881 0.14571531 0.4723578 0.5788848 0.17530529 0.7904886 0.34403792 0.26613995 0.22043563 1.0765301 0.33733138 0.44205585 -0.50580424 0.20477347 -0.17039008
되는데 -0.33284843 0.3194978 -0.05277927 0.17049263 0.29904467 -0.8517614 0.21618292 1.1869606 -0.5736763 -0.2668505 -0.23793013 -0.81697506 -0.2516207 0.2476896 0.16502123 -0.4559655 0.196406 -0.23658507 -0.057010483 -0.8510712 0.29312536 0.006661507 0.13226554 -0.3302854 -0.10543797 -0.07924803 -0.46628875 -0.15023091 -0.48701528 0.18561845 0.6629456 0.018914264 0.1542284 -0.45472538 -0.25806373 0.579364 -0.08108395 -0.25603554 -0.30390576 -0.8753024 0.033361357 -0.52381724 -0.33702773 0.0052283653 0.5411773 -0.21576495 -0.35381362 -0.3387241 0.33416945 0.4401244 0.21452905 -0.46434215 -0.16518441 -0.039557043 -0.36840442 0.25248864 0.26640627 -0.23253384 -0.2801184 0.15708786 0.10108034 0.21364549 0.04812758 -0.2593637 -0.43622532 0.50082576 0.37672603 0.4483923 -0.7505631 0.55062103 -0.3031494 0.2898787 0.5416474 -0.11142188 0.49239784 0.20869818 0.045785706 0.018764496 -0.4346259 -0.03686103 -0.35993037 -0.17104411 -0.42871287 0.62707686 -0.20376943 -0.08676542 0.15208595 0.41862097 0.49969152 0.13821556 0.7252316 0.30863658 0.23505455 0.18968011 0.9719204 0.30481115 0.40015006 -0.4682797 0.17247473 -0.14229266
해 -0.4034366 0.38182423 -0.07327943 0.22075512 0.3541722 -0.9877107 0.24587694 1.3990803 -0.6765112 -0.3034524 -0.27934614 -0.96286887 -0.2880443 0.30448487 0.19291629 -0.56382555 0.2199043 -0.28860673 -0.0646098 -1.0011759 0.3807047 -0.011405404 0.15239681 -0.38383922 -0.12866515 -0.10987424 -0.5207559 -0.18745707 -0.55084765 0.22566722 0.79761463 0.024525445 0.16422053 -0.5292028 -0.27986056 0.6909362 -0.08662994 -0.27790716 -0.33911833 -1.0426943 0.03768417 -0.62439674 -0.38824424 -0.017144531 0.6271256 -0.24520414 -0.42982858 -0.39202118 0.40482432 0.51684135 0.26494676 -0.5403349 -0.19439735 -0.056079645 -0.4264782 0.3122763 0.32382986 -0.26644954 -0.34472924 0.19522062 0.109207794 0.25096136 0.053190712 -0.32048246 -0.51869863 0.5745387 0.46277347 0.5393003 -0.8847165 0.66410005 -0.3389556 0.32624298 0.6307374 -0.11415992 0.56008774 0.23428407 0.07216372 0.025982084 -0.49693322 -0.050604496 -0.43921342 -0.21282046 -0.48823243 0.73792833 -0.24511375 -0.111047834 0.17752184 0.4959014 0.61976045 0.18374674 0.8591763 0.34974396 0.26762286 0.23754884 1.1325148 0.3717065 0.46103 -0.56970924 0.20765015 -0.16284907
있을까 -0.24487366 0.24174826 -0.06036274 0.110586 0.20354927 -0.60664785 0.1248992 0.813124 -0.42833757 -0.18699306 -0.166276 -0.6092766 -0.17734231 0.18552896 0.13014494 -0.36578682 0.14939784 -0.1910586 -0.021684075 -0.5795799 0.23635842 0.020796653 0.09481857 -0.22590716 -0.091540396 -0.033573247 -0.34440657 -0.10955132 -0.33689532 0.11126021 0.4688461 0.023359751 0.11323366 -0.3221602 -0.17817262 0.43587282 -0.055843588 -0.1471522 -0.22301665 -0.6057339 0.0066344026 -0.3652601 -0.21694387 -0.010407166 0.35718852 -0.14084 -0.24277088 -0.25404337 0.23168865 0.3112274 0.13411805 -0.31653127 -0.094091214 -0.0078421375 -0.23029488 0.17319818 0.20268266 -0.19446613 -0.21974483 0.08636194 0.07704152 0.14739269 0.013429047 -0.16352026 -0.30587044 0.35254136 0.25745267 0.32544434 -0.5409398 0.4261119 -0.18374063 0.19478534 0.41439092 -0.082074635 0.34854922 0.16282696 0.027635612 0.025494842 -0.30826923 -0.039461426 -0.28681815 -0.13038416 -0.3138963 0.4591603 -0.1376065 -0.059984878 0.109918274 0.33711278 0.3630945 0.104132965 0.5259764 0.21096493 0.1709315 0.13058324 0.6795427 0.24812415 0.22971193 -0.32140306 0.11432754 -0.11474155
할 -0.35348374 0.334491 -0.063926496 0.18154617 0.3124929 -0.89170665 0.20717545 1.214884 -0.6008942 -0.27852836 -0.2622385 -0.8516913 -0.2564879 0.26121697 0.18432236 -0.5123898 0.19533028 -0.27245224 -0.048270144 -0.8742686 0.33115757 0.013140854 0.13048624 -0.35177904 -0.11124152 -0.06394246 -0.47248137 -0.13801926 -0.5106209 0.19449219 0.7076986 0.031601727 0.1381787 -0.4747032 -0.26302907 0.613807 -0.079403006 -0.2309839 -0.3119076 -0.89299786 0.02980471 -0.5340264 -0.34750184 -0.024376005 0.5461354 -0.2220533 -0.38343686 -0.34801355 0.35269278 0.45885774 0.22007991 -0.4784612 -0.15904589 -0.04364395 -0.358931 0.28391185 0.27748135 -0.24498835 -0.30947915 0.15710612 0.09382408 0.22033079 0.03501963 -0.27034128 -0.44509983 0.5122698 0.37525204 0.48278224 -0.7712423 0.59209234 -0.28807417 0.30730242 0.5850751 -0.1104003 0.50414777 0.19790852 0.054378025 0.018079773 -0.42995954 -0.05161735 -0.41254896 -0.17509186 -0.46120983 0.6745281 -0.20693234 -0.10560039 0.16348319 0.47273207 0.5360847 0.14179064 0.77507496 0.31304443 0.25684044 0.19428672 0.9928131 0.34460783 0.38222265 -0.49211538 0.1765333 -0.16558595
살 -0.37495142 0.3752452 -0.06873242 0.19493178 0.34402278 -0.94277453 0.22493115 1.3135121 -0.63248813 -0.30020472 -0.26067525 -0.91082305 -0.25614288 0.29226658 0.19097036 -0.525121 0.2186603 -0.28183064 -0.06637875 -0.9459728 0.33617735 0.0045477003 0.12239653 -0.37459812 -0.115262486 -0.103045955 -0.49362427 -0.16424634 -0.5320256 0.19355358 0.7479573 0.024253746 0.14000998 -0.50041 -0.28192338 0.6528673 -0.082799055 -0.2626792 -0.3253417 -0.97218597 0.03454241 -0.58219814 -0.36697468 -0.020607729 0.5796628 -0.234523 -0.40062678 -0.36807546 0.36837107 0.4929989 0.2437909 -0.50150245 -0.18963063 -0.045771975 -0.4041895 0.28283304 0.31502345 -0.26393282 -0.32653266 0.18488656 0.113685295 0.23608308 0.04814471 -0.3042306 -0.48217776 0.5354324 0.41031846 0.4843077 -0.8312278 0.62138706 -0.30361903 0.3067456 0.59241307 -0.10221205 0.54186666 0.21183619 0.06366656 0.016162047 -0.47351724 -0.06017276 -0.39853972 -0.18163176 -0.47950667 0.69696134 -0.22625053 -0.09759089 0.14779744 0.48447415 0.56629765 0.17159078 0.81688964 0.34021887 0.2638162 0.21624549 1.051332 0.3467324 0.42789978 -0.5301189 0.21077521 -0.16917698
인간 -0.32449988 0.32442996 -0.07044989 0.16734827 0.30527794 -0.8462208 0.2133457 1.1835567 -0.55991524 -0.25158486 -0.22001135 -0.7988801 -0.2510463 0.24378702 0.16198912 -0.46601352 0.19613215 -0.24987222 -0.058030915 -0.84763026 0.3047586 -0.009535798 0.12967126 -0.33948925 -0.11473918 -0.10078625 -0.44157362 -0.15426703 -0.46717572 0.17480448 0.68281424 0.0072937505 0.13828948 -0.44260958 -0.23318282 0.5768831 -0.07247157 -0.25035155 -0.28279245 -0.880553 0.03780009 -0.52674776 -0.32473218 -0.016242687 0.5335099 -0.20436062 -0.377387 -0.31660554 0.3275465 0.446379 0.21728194 -0.4511213 -0.16801016 -0.02827972 -0.3660949 0.26399526 0.28243497 -0.23092905 -0.28064194 0.16603163 0.093103476 0.2085879 0.04932688 -0.26807126 -0.4308669 0.50260395 0.37999693 0.45141965 -0.7517871 0.5525258 -0.29843906 0.2856403 0.5279248 -0.098754175 0.49065167 0.18601203 0.05571221 0.0124464985 -0.43181422 -0.05466414 -0.3771108 -0.16258498 -0.4277759 0.6364298 -0.21246403 -0.08882683 0.14385697 0.4141935 0.5118038 0.1439835 0.71336114 0.2990443 0.22758079 0.19448072 0.9620761 0.29728863 0.3889117 -0.47391057 0.17751639 -0.14763103
모든 -0.38262048 0.36359066 -0.07636056 0.19910294 0.3485122 -0.9719845 0.23048913 1.3594977 -0.64006007 -0.30571073 -0.25882223 -0.9364165 -0.27848992 0.2969591 0.18847696 -0.51518387 0.21999146 -0.2819006 -0.053479847 -0.97663724 0.33782533 -0.005110658 0.13763972 -0.38313657 -0.13169889 -0.111942016 -0.5156056 -0.17193852 -0.5336046 0.19335821 0.7638871 0.024751315 0.16737762 -0.51020443 -0.27968878 0.6587367 -0.07838796 -0.28703848 -0.34072903 -0.99350786 0.036852427 -0.5920308 -0.39295644 -0.008214956 0.6102193 -0.2369881 -0.41611573 -0.36307082 0.36854932 0.49885067 0.25134194 -0.517002 -0.18622641 -0.035802554 -0.3979008 0.29860696 0.3195065 -0.27577507 -0.31690857 0.18915348 0.09816633 0.23759434 0.056722414 -0.30080196 -0.5003981 0.5609314 0.43437165 0.5113346 -0.83521044 0.61873454 -0.31738228 0.30650488 0.6164937 -0.10421919 0.5464829 0.21560168 0.06804565 0.004616492 -0.49311477 -0.055603463 -0.42759794 -0.18398982 -0.46895304 0.7189387 -0.22577018 -0.08404293 0.16908164 0.49052566 0.59589845 0.17666022 0.8301596 0.35400885 0.25569138 0.23567419 1.1026145 0.3606648 0.43302378 -0.5374283 0.20739098 -0.1575272
곳 -0.39037976 0.38031042 -0.060393717 0.21881443 0.33954632 -0.96710855 0.24426672 1.3587393 -0.6562062 -0.31552958 -0.26708332 -0.9310568 -0.27195626 0.28214985 0.18641116 -0.5342246 0.2240833 -0.29926893 -0.059694715 -0.9699988 0.345579 0.012475507 0.130139 -0.37706408 -0.121771395 -0.10146 -0.52824384 -0.17123522 -0.55137634 0.20484236 0.7631727 0.02628221 0.14332584 -0.5104905 -0.28781655 0.67553514 -0.08840817 -0.28617218 -0.3294184 -1.0181613 0.038829908 -0.60804963 -0.39278618 -0.0182178 0.6195094 -0.2401893 -0.41330835 -0.38450652 0.3849827 0.50599295 0.24057938 -0.5294021 -0.20094787 -0.054978877 -0.41368875 0.29431924 0.30857503 -0.27640435 -0.3185564 0.18500707 0.115439035 0.24710101 0.060020875 -0.31336683 -0.5058807 0.5672974 0.42971823 0.5277027 -0.8440955 0.6333021 -0.31973627 0.33099204 0.61881864 -0.10982289 0.56608355 0.23022805 0.053339854 0.0044021914 -0.49034283 -0.054698184 -0.41585228 -0.21036646 -0.48855457 0.73452747 -0.23462571 -0.117798395 0.16574135 0.48494992 0.5876642 0.16697876 0.83477443 0.35943708 0.273696 0.23488602 1.1165416 0.36118838 0.4414522 -0.53218174 0.2009383 -0.16959846
로맨스 -0.35928518 0.38066486 -0.07200463 0.18652977 0.34370854 -0.9477411 0.22602879 1.3402667 -0.63653207 -0.28136912 -0.26216316 -0.89944756 -0.26823142 0.29746076 0.21094774 -0.5287612 0.21736164 -0.29665852 -0.050801262 -0.9490873 0.35884765 0.012889832 0.15047112 -0.35875922 -0.13286853 -0.11648638 -0.5042448 -0.16210969 -0.5294281 0.2045504 0.7653842 0.00671848 0.15587278 -0.50112003 -0.26638907 0.66195637 -0.074226096 -0.27183008 -0.34196123 -0.9710759 0.021114865 -0.5785506 -0.36520168 -0.013797075 0.58329296 -0.21510158 -0.41999945 -0.35628045 0.37011343 0.48378456 0.23962156 -0.5170879 -0.1961654 -0.05755973 -0.39039773 0.29318374 0.31185222 -0.24623427 -0.32081312 0.16657203 0.10444549 0.23368588 0.041060355 -0.2899083 -0.48881721 0.5575023 0.43704152 0.50061363 -0.8305045 0.63020605 -0.32594264 0.30962595 0.593586 -0.12182943 0.5437474 0.20774902 0.07298562 0.016355084 -0.4820282 -0.040925637 -0.42891565 -0.19703522 -0.47472212 0.7202827 -0.22720055 -0.095492534 0.15761575 0.48740575 0.58343285 0.17197883 0.82495445 0.33973882 0.25164235 0.21072184 1.0721924 0.33264413 0.451497 -0.5237003 0.19654413 -0.17356874
만 -0.42168394 0.4182532 -0.0831573 0.23202528 0.38095236 -1.0460562 0.25058374 1.4860784 -0.72126645 -0.31182042 -0.29744506 -1.0181367 -0.2969912 0.3173344 0.22079262 -0.5886991 0.24701186 -0.33322024 -0.05958206 -1.0633973 0.38091198 7.851909e-05 0.15171024 -0.40955272 -0.1464207 -0.12657157 -0.5694509 -0.19776984 -0.60057986 0.22140194 0.8540866 0.017057836 0.15646079 -0.5635508 -0.3013835 0.72619677 -0.089160345 -0.30820164 -0.35853845 -1.102727 0.02998317 -0.6474828 -0.4252993 -0.0071015228 0.6657321 -0.24362929 -0.45267075 -0.4027123 0.41652846 0.55095804 0.27634662 -0.5742883 -0.20766883 -0.047242556 -0.4340448 0.32409793 0.3414553 -0.28096145 -0.36541134 0.1984196 0.106193304 0.27256063 0.039603602 -0.3327089 -0.5318569 0.6111475 0.46918124 0.5500688 -0.920302 0.6830321 -0.35408223 0.34667453 0.6740306 -0.1269586 0.59404206 0.24041301 0.06863231 0.013612827 -0.52488065 -0.059478343 -0.46878296 -0.21268824 -0.52835375 0.7823441 -0.26156992 -0.11176815 0.1758115 0.53849846 0.65669143 0.19873783 0.91611856 0.38200256 0.28034508 0.25625822 1.2043555 0.3906391 0.49018615 -0.58275145 0.23390415 -0.19058944
두 -0.35048136 0.3463224 -0.05504929 0.17775357 0.32197094 -0.88267577 0.21598785 1.2407757 -0.61570114 -0.2640612 -0.25833458 -0.8659508 -0.24681856 0.2556683 0.17739291 -0.49377334 0.20298746 -0.28019154 -0.055901136 -0.8970701 0.33072492 0.003757314 0.13916582 -0.35579562 -0.11498537 -0.10008055 -0.4718803 -0.164859 -0.5023591 0.18448904 0.7014297 0.027662693 0.14431117 -0.47142956 -0.266528 0.61486614 -0.082599916 -0.25664085 -0.31387678 -0.9229507 0.035755333 -0.55610716 -0.34472418 -0.0017225492 0.54627097 -0.21605094 -0.3880417 -0.3510989 0.33444852 0.459627 0.22822376 -0.48026392 -0.18352538 -0.042234793 -0.36779273 0.25686967 0.29663554 -0.2334466 -0.30806047 0.1677855 0.10633067 0.21940532 0.044716857 -0.28451103 -0.4462898 0.5267917 0.4014594 0.4678126 -0.78010094 0.572668 -0.31348142 0.30714354 0.55848837 -0.106789865 0.51545995 0.19297692 0.06996631 0.007391657 -0.44762477 -0.043885317 -0.3947285 -0.18350236 -0.45008355 0.65781826 -0.21487491 -0.09974806 0.15910958 0.45865935 0.54377353 0.15992883 0.75781024 0.3252431 0.23563865 0.21087503 1.0166495 0.33133647 0.41019738 -0.48869863 0.19638172 -0.15829898
못 -0.33311775 0.34163037 -0.052170742 0.17728636 0.3074023 -0.85800874 0.19299813 1.182763 -0.5866454 -0.25847632 -0.24237184 -0.8163309 -0.22226928 0.26585102 0.18433377 -0.4717723 0.19174474 -0.25130773 -0.06187516 -0.87439626 0.3291159 -0.01811756 0.13259986 -0.33568963 -0.123017184 -0.09897066 -0.46377745 -0.14500628 -0.48880783 0.1769926 0.6871255 0.022857241 0.13956167 -0.44644648 -0.25065956 0.5788151 -0.07037388 -0.22946988 -0.3009341 -0.8809934 0.034441214 -0.52435374 -0.34397337 -0.011725742 0.5319521 -0.20431243 -0.35900944 -0.3188562 0.31912076 0.4507907 0.21686687 -0.4600634 -0.1813703 -0.05070043 -0.34311184 0.26131484 0.26462898 -0.22760266 -0.29434636 0.15080287 0.10023412 0.21241459 0.046001937 -0.26051277 -0.42832762 0.48816738 0.3930374 0.45577446 -0.7459949 0.56313705 -0.30011857 0.28174996 0.5361828 -0.087927386 0.48077768 0.20884925 0.052561767 0.0022885955 -0.4350297 -0.04735572 -0.35688958 -0.18249808 -0.42670998 0.64213336 -0.21378478 -0.08743581 0.14814794 0.41566607 0.5281745 0.15180959 0.7406549 0.3003823 0.2234458 0.2113305 0.9561375 0.32020694 0.37933645 -0.45899135 0.17308225 -0.15366656
전 -0.3897644 0.38657176 -0.072050855 0.20967314 0.3444682 -0.99453455 0.23904985 1.4027696 -0.6664131 -0.30524975 -0.28050363 -0.9497369 -0.2935577 0.3005314 0.2047858 -0.5506809 0.2217345 -0.30820376 -0.07594476 -0.9912694 0.36800483 -0.0012633112 0.15512465 -0.39164823 -0.13562821 -0.11057265 -0.5364978 -0.18988734 -0.54492205 0.20823136 0.7807767 0.026406692 0.14632101 -0.52730113 -0.2851287 0.67979664 -0.09110829 -0.2898114 -0.35078815 -1.0249976 0.031414185 -0.61875784 -0.3889568 -0.012306529 0.6364344 -0.2318124 -0.43082196 -0.38009652 0.38819194 0.5230117 0.2639501 -0.5391078 -0.20022549 -0.053059563 -0.41785142 0.2967603 0.32089075 -0.28048655 -0.33473635 0.18808517 0.112076595 0.24732997 0.05418875 -0.32445142 -0.49974978 0.5770171 0.45522067 0.5311907 -0.86835504 0.65384114 -0.34006104 0.31711328 0.622708 -0.12127421 0.55555147 0.23713544 0.070165664 0.014309612 -0.49560308 -0.05540948 -0.43717363 -0.20055382 -0.5034059 0.7373539 -0.23348978 -0.11244059 0.17602079 0.5089061 0.60085374 0.18980674 0.8630921 0.35130763 0.2617667 0.22288884 1.1376997 0.3675835 0.45940682 -0.5518776 0.20290197 -0.17541239
세계 -0.31381005 0.3105719 -0.07012878 0.17233396 0.27918655 -0.82416874 0.20531055 1.1626807 -0.56312686 -0.24615127 -0.2141515 -0.78340507 -0.24061674 0.259939 0.15916522 -0.45658794 0.1888605 -0.2595921 -0.066143595 -0.8233463 0.31030613 -0.005409794 0.1142586 -0.31079495 -0.11243726 -0.102556705 -0.42956844 -0.15014379 -0.4531456 0.18141177 0.66314405 0.02516582 0.13741173 -0.44479573 -0.2328544 0.56849176 -0.06631725 -0.22721347 -0.28037232 -0.86205035 0.0412827 -0.50910175 -0.3237469 -0.0008056905 0.510358 -0.19775496 -0.3569629 -0.30661383 0.32570836 0.42511195 0.2004036 -0.44872662 -0.15503645 -0.052526265 -0.33312857 0.2488373 0.26638308 -0.21322118 -0.2631669 0.16324325 0.09889249 0.19831964 0.050771575 -0.2723443 -0.4313463 0.46732453 0.3783609 0.44809183 -0.72740436 0.5325029 -0.28046665 0.26752895 0.5126682 -0.09232358 0.47370672 0.18620941 0.050764162 0.010640848 -0.42017025 -0.04094772 -0.3499059 -0.15793289 -0.4139012 0.6110469 -0.21082787 -0.0934509 0.14023435 0.40880412 0.50675845 0.1574147 0.70921314 0.29888645 0.23494786 0.19906399 0.9328093 0.28947005 0.3802449 -0.44777524 0.18715931 -0.14478229
위 -0.31562063 0.33048907 -0.05278404 0.16675535 0.30732024 -0.83676374 0.19299668 1.1928006 -0.5882436 -0.264895 -0.22815533 -0.78893375 -0.23695166 0.2609519 0.18006162 -0.46389037 0.18388775 -0.24824515 -0.06383337 -0.8667285 0.3244169 -0.012354267 0.13366005 -0.33679587 -0.12038125 -0.10714682 -0.4576251 -0.15756351 -0.4607261 0.1924989 0.66152686 0.0077462466 0.13886373 -0.45589685 -0.23478104 0.59390205 -0.084197745 -0.2249288 -0.27943993 -0.8726016 0.0356258 -0.53108895 -0.32289416 0.0008673985 0.5323163 -0.21785687 -0.36246237 -0.32331815 0.3300633 0.44281837 0.21975757 -0.45219004 -0.18285862 -0.038537122 -0.35930607 0.25791377 0.28252858 -0.22642827 -0.2745812 0.1488716 0.09642848 0.22668537 0.036000453 -0.26189694 -0.44833076 0.5088677 0.39499107 0.45453644 -0.7355015 0.5582857 -0.2967642 0.2717194 0.52568555 -0.0914861 0.4806032 0.18015781 0.052300345 0.031310264 -0.413822 -0.03602711 -0.37347162 -0.1689166 -0.42601594 0.648257 -0.20216131 -0.07528179 0.13234232 0.42531294 0.5299943 0.16005744 0.7226729 0.2969447 0.22983831 0.18484952 0.9637832 0.30973157 0.3972997 -0.47659525 0.16737054 -0.14820558
으로 -0.38456556 0.38851693 -0.07663286 0.2246091 0.34348878 -0.9902754 0.25217173 1.403177 -0.6881091 -0.30035865 -0.28772086 -0.9672903 -0.27536875 0.29096663 0.1892373 -0.5582743 0.23526126 -0.30246305 -0.0735086 -1.0107461 0.37747353 0.010486422 0.16005011 -0.38736323 -0.13466021 -0.10387486 -0.5336503 -0.17238507 -0.5579486 0.21829167 0.79553306 0.01199396 0.16779757 -0.5365325 -0.28775972 0.6880784 -0.08768125 -0.2936164 -0.3435142 -1.04146 0.027668964 -0.6234714 -0.388728 -0.0032538492 0.6293306 -0.23438461 -0.44300154 -0.39142844 0.38549256 0.5148635 0.26262075 -0.5546498 -0.21010803 -0.06262217 -0.41292536 0.30372164 0.32464507 -0.28071782 -0.3407922 0.18745308 0.10546624 0.24176285 0.044622045 -0.31198227 -0.52195567 0.5851131 0.45168987 0.5419374 -0.87843305 0.6616235 -0.34719628 0.3234984 0.6387605 -0.11793482 0.56255186 0.23127273 0.07367195 0.0061066 -0.50635093 -0.05578673 -0.44148487 -0.19470586 -0.5010698 0.73933834 -0.25138092 -0.121687636 0.1605561 0.49919927 0.6058493 0.17805555 0.85843855 0.35292935 0.27530473 0.23628446 1.1500676 0.35876948 0.469565 -0.55040735 0.21285693 -0.17776775
알 -0.25874442 0.23891136 -0.03747124 0.15199064 0.24246512 -0.6704323 0.16261025 0.90769297 -0.43103844 -0.22376467 -0.18016596 -0.64667946 -0.19448245 0.19800772 0.1391628 -0.3483573 0.1378702 -0.18257666 -0.045368865 -0.62880236 0.2120418 0.012663308 0.07432047 -0.26705813 -0.08395571 -0.05742779 -0.36741284 -0.11002274 -0.369779 0.122701116 0.51940185 0.022867894 0.13205934 -0.3316763 -0.20573118 0.45835695 -0.05029101 -0.17177308 -0.21970424 -0.670428 0.030336859 -0.39311287 -0.25438887 -0.020106975 0.40848076 -0.15321682 -0.28319204 -0.24386838 0.2562023 0.33455053 0.15660171 -0.3460997 -0.10689501 -0.020258296 -0.28560698 0.20877552 0.20517823 -0.19871418 -0.20292628 0.13256662 0.08647989 0.1688755 0.02394778 -0.21303044 -0.32372946 0.36342308 0.27534378 0.34314 -0.5817939 0.41794235 -0.20447983 0.21227485 0.42965034 -0.06899888 0.38329202 0.1578927 0.04839739 0.0041215234 -0.31041113 -0.042957887 -0.27202994 -0.12144363 -0.32736102 0.4937235 -0.16950524 -0.055669457 0.11595643 0.32184523 0.3884156 0.096771225 0.5516052 0.23993014 0.19629209 0.16175121 0.71703756 0.25553286 0.2688825 -0.35177284 0.15379289 -0.11638812
로 -0.38710198 0.36745164 -0.06340986 0.20244701 0.330755 -0.9580242 0.23783624 1.3571601 -0.647307 -0.29465163 -0.278816 -0.92016333 -0.269743 0.28089345 0.18797207 -0.5316742 0.22068529 -0.2906128 -0.07142467 -0.97045064 0.35641366 -0.0029486106 0.14163539 -0.36755833 -0.13957144 -0.11151382 -0.5039791 -0.18408139 -0.5436175 0.20849958 0.75909984 0.021252945 0.16195185 -0.5119627 -0.27250296 0.66361415 -0.08447121 -0.2802108 -0.33387312 -0.99337524 0.04401717 -0.5937615 -0.3850607 -0.019014066 0.6169141 -0.22937226 -0.41079384 -0.36977118 0.3885307 0.49265686 0.257705 -0.5332683 -0.19657566 -0.04377157 -0.4182079 0.2988418 0.30460674 -0.27378926 -0.32458013 0.18381788 0.10187177 0.25189635 0.041002274 -0.30457768 -0.48341814 0.5654662 0.43212909 0.51847863 -0.85067505 0.6318484 -0.32445765 0.33027548 0.6177093 -0.118736915 0.5608634 0.22126049 0.07119759 0.006550461 -0.49345583 -0.05402309 -0.4296071 -0.2039104 -0.4817071 0.7201178 -0.24291131 -0.10914765 0.15234613 0.48499906 0.59783167 0.17521317 0.8399356 0.34211057 0.2750552 0.23070972 1.1101574 0.34978053 0.44703728 -0.53794074 0.19615555 -0.1560541
친구 -0.35290158 0.35577884 -0.06010549 0.19352537 0.31026983 -0.89905256 0.22008571 1.2506878 -0.6143404 -0.2785988 -0.25026023 -0.8640065 -0.25100476 0.2680326 0.18096021 -0.49815097 0.19554389 -0.26545757 -0.052416522 -0.8910399 0.32970107 -0.007523307 0.14021929 -0.35188037 -0.13081224 -0.08460546 -0.4773746 -0.16840488 -0.5016173 0.20203657 0.70392066 0.02235586 0.14187774 -0.4651408 -0.25779608 0.5981591 -0.077259734 -0.2478974 -0.3035944 -0.931717 0.040604774 -0.5465196 -0.34346843 -0.0068543605 0.5504986 -0.21860382 -0.37944373 -0.34900707 0.35988006 0.45221385 0.21674365 -0.48671117 -0.17241457 -0.055585608 -0.3639442 0.25890076 0.29228696 -0.23898546 -0.30117938 0.17995103 0.1053682 0.22463484 0.050552104 -0.2731372 -0.45328033 0.52763903 0.40416113 0.46643618 -0.7856227 0.5772614 -0.3105851 0.29607928 0.56785345 -0.11291822 0.5095057 0.21341294 0.056902226 0.014587662 -0.44139123 -0.057511147 -0.38268974 -0.17102316 -0.44501606 0.6530878 -0.22636569 -0.10556303 0.1512614 0.45349216 0.5531303 0.15832692 0.76610327 0.32486942 0.23015457 0.1967916 1.017145 0.31489035 0.4068122 -0.49870986 0.19945073 -0.15656711
게임 -0.32480052 0.33772302 -0.07080328 0.17505717 0.30542973 -0.8679765 0.21969375 1.226895 -0.5768968 -0.2739698 -0.24312118 -0.8277066 -0.25043058 0.25379604 0.18519723 -0.46678835 0.19243999 -0.25802127 -0.04938226 -0.86903495 0.32934216 -0.0029543717 0.11660956 -0.33504164 -0.1282508 -0.0837076 -0.47070196 -0.15849644 -0.4857953 0.19214866 0.6975682 0.009505065 0.12798622 -0.45883954 -0.24230808 0.6038723 -0.07528254 -0.24894744 -0.31025445 -0.89516896 0.018566445 -0.5356131 -0.3477351 -0.017107863 0.557611 -0.20919912 -0.38890782 -0.3455918 0.3412768 0.44062668 0.22761847 -0.46528667 -0.17275204 -0.04694242 -0.35510927 0.2577015 0.29122248 -0.23718885 -0.29531813 0.16850924 0.089177065 0.21287324 0.04225444 -0.28482878 -0.4462532 0.50241125 0.40341526 0.44888973 -0.7602208 0.554167 -0.30612966 0.28464702 0.534041 -0.10838912 0.49602678 0.20095259 0.06092709 0.018503496 -0.44956458 -0.03857443 -0.38714513 -0.16777527 -0.42361528 0.66161853 -0.22364679 -0.08856194 0.13509566 0.43582335 0.5280308 0.1443439 0.7523295 0.31720623 0.23157752 0.19344908 0.99083036 0.3091945 0.3940995 -0.48685396 0.18642299 -0.13868703
되고 -0.37465447 0.37262148 -0.05938282 0.19002812 0.3292036 -0.9382296 0.23256667 1.3110611 -0.63506585 -0.29927438 -0.25226796 -0.9112626 -0.28095087 0.28187147 0.18713012 -0.51225483 0.21552722 -0.27453658 -0.06023318 -0.92927945 0.33320126 -0.007938828 0.12651801 -0.3497267 -0.12254594 -0.10837417 -0.49453378 -0.15737554 -0.5168728 0.19493268 0.73631996 0.015061465 0.14564908 -0.49002966 -0.26553386 0.6347468 -0.07102474 -0.28208742 -0.31673256 -0.975728 0.037491683 -0.58426595 -0.3673734 0.0033373192 0.5887254 -0.23402587 -0.40974003 -0.35725474 0.3712797 0.4929144 0.2340301 -0.5193968 -0.1797338 -0.04948076 -0.38889304 0.29331794 0.29943633 -0.2563708 -0.31732386 0.17315915 0.09706388 0.23812015 0.040915176 -0.29814622 -0.48237506 0.5512879 0.42762363 0.50495213 -0.8186938 0.6047829 -0.3278135 0.32024378 0.5959841 -0.12181852 0.5417941 0.23061223 0.070508406 0.0055488343 -0.47532508 -0.048770536 -0.40268672 -0.19115312 -0.46760833 0.70381576 -0.21957685 -0.09991115 0.15061677 0.46348163 0.5609353 0.1719446 0.80332524 0.336829 0.24785891 0.21346274 1.0714521 0.34438878 0.44055432 -0.5246095 0.21354546 -0.15706797
다시 -0.3544942 0.36033866 -0.06966867 0.19924589 0.33287913 -0.8966384 0.22388725 1.2706989 -0.61756104 -0.28940725 -0.2519764 -0.8677512 -0.26331386 0.2726407 0.18983851 -0.50972104 0.21230736 -0.26474157 -0.06963189 -0.9035467 0.32353845 -0.007243332 0.14195582 -0.3570892 -0.12552747 -0.10273024 -0.49220517 -0.16890052 -0.50568527 0.20022155 0.70908594 0.012536263 0.13778691 -0.4843389 -0.26696894 0.6211352 -0.072758526 -0.2544131 -0.3079732 -0.9267942 0.033339635 -0.5600868 -0.34645241 -0.0069369907 0.56940687 -0.22032708 -0.40044507 -0.34174624 0.36105293 0.46882647 0.24116412 -0.49746597 -0.17717603 -0.055604726 -0.39256763 0.2826995 0.2970194 -0.2418636 -0.31378847 0.17466135 0.10095653 0.23506266 0.042491928 -0.27801946 -0.45429742 0.51733893 0.39986357 0.48913682 -0.79323894 0.5833346 -0.31058702 0.2997841 0.57981867 -0.10946776 0.5154355 0.20219956 0.051281977 0.01936178 -0.45310724 -0.05886353 -0.398647 -0.19302209 -0.45352203 0.6819736 -0.21687597 -0.089160174 0.15979396 0.46039703 0.56246364 0.16763741 0.7895255 0.33511066 0.25190613 0.21543959 1.0355083 0.32847473 0.4108672 -0.4934599 0.19211666 -0.16135103
같은 -0.38055152 0.3733425 -0.05764142 0.20765832 0.34542036 -0.9566882 0.24439786 1.348181 -0.66343915 -0.30041537 -0.2730317 -0.94412225 -0.27721825 0.28025883 0.2066882 -0.5381892 0.21505645 -0.30290478 -0.065929994 -0.98297155 0.3554962 0.008868313 0.14013752 -0.36405542 -0.13359542 -0.10994502 -0.5171011 -0.17607057 -0.54634964 0.19825451 0.7654602 0.017460365 0.15679069 -0.5200153 -0.28738502 0.6638351 -0.07987657 -0.2747694 -0.33660772 -0.99796075 0.04288446 -0.61079854 -0.37563467 -0.0012159682 0.6044391 -0.22451295 -0.42633843 -0.37572607 0.36578858 0.5087073 0.23585501 -0.52577597 -0.19652599 -0.055159405 -0.3915922 0.28498572 0.30556744 -0.25175872 -0.3374133 0.19221818 0.099190176 0.24882114 0.047142297 -0.30915368 -0.50369185 0.55572754 0.44616154 0.51965606 -0.84906805 0.64015377 -0.32602322 0.3258751 0.6112437 -0.12768228 0.56076926 0.21737859 0.060050175 0.018416416 -0.4800708 -0.062469646 -0.42275882 -0.18937302 -0.48804212 0.7341883 -0.2390095 -0.09275961 0.15210932 0.49652258 0.602847 0.16493893 0.83336955 0.3405086 0.27057958 0.23382285 1.0947437 0.35315746 0.44592005 -0.54639894 0.20742829 -0.1777647
만화 -0.3519241 0.34824723 -0.058792926 0.20204236 0.31448784 -0.906838 0.21244374 1.2823462 -0.6093729 -0.2653055 -0.24704303 -0.87625563 -0.26128554 0.28926578 0.20205604 -0.48967436 0.19690607 -0.2958038 -0.050181754 -0.92509294 0.34188497 0.016409684 0.13100837 -0.34545505 -0.13185692 -0.09275063 -0.4682996 -0.15870202 -0.5151697 0.20479237 0.7395319 0.015872262 0.13811925 -0.47452497 -0.25989094 0.6305271 -0.07912635 -0.2704852 -0.31806543 -0.94660145 0.031619728 -0.5780913 -0.35311863 0.0015834003 0.5797902 -0.21174097 -0.40536758 -0.34139225 0.3442312 0.4631329 0.24542545 -0.48241588 -0.18835333 -0.05564691 -0.36911368 0.2817188 0.3088156 -0.2500739 -0.31182635 0.16698927 0.09645382 0.2346571 0.02901045 -0.2851119 -0.47212452 0.539804 0.41793317 0.49324393 -0.7909494 0.6029943 -0.31955582 0.28353718 0.5680578 -0.115143195 0.52665925 0.2169542 0.050379455 0.03289697 -0.45799494 -0.060408115 -0.39633963 -0.18944003 -0.4607283 0.6977105 -0.2081034 -0.07973451 0.15126848 0.4709183 0.562665 0.1570697 0.79795337 0.32574037 0.23100545 0.22034754 1.0315723 0.33887905 0.42331344 -0.49097934 0.18631695 -0.14976035
에서 -0.30128747 0.31332645 -0.05685016 0.16279551 0.2696257 -0.7858276 0.20247185 1.1051425 -0.53100765 -0.23821528 -0.23076166 -0.7629557 -0.23447515 0.23341556 0.15794931 -0.44755715 0.17842643 -0.24601707 -0.05998505 -0.8050364 0.3010992 0.011137416 0.114318594 -0.31061167 -0.10220449 -0.08002983 -0.4370859 -0.14843822 -0.4455604 0.1811914 0.6333862 0.0281405 0.13470668 -0.42102256 -0.2222402 0.55861974 -0.05959466 -0.21625765 -0.28642452 -0.8193057 0.020706015 -0.50128376 -0.32189152 -0.004780808 0.50008506 -0.1994864 -0.33751136 -0.29802838 0.31713122 0.4209265 0.19667894 -0.43680194 -0.15487526 -0.042955793 -0.341439 0.24678193 0.25316525 -0.22461659 -0.26387444 0.15711154 0.09279502 0.20077702 0.051985994 -0.24738638 -0.39785624 0.46475884 0.36236706 0.43189657 -0.70663804 0.52320063 -0.26609275 0.27143237 0.50243217 -0.09662951 0.45004296 0.18290268 0.049197048 0.005755206 -0.39571086 -0.03649197 -0.34354067 -0.1712037 -0.40452933 0.59089756 -0.1890539 -0.09804424 0.14235587 0.4061701 0.48324472 0.15210627 0.6922636 0.28726068 0.22289677 0.17361434 0.8944276 0.28721252 0.37662503 -0.4369718 0.17653944 -0.14361577
앞 -0.354111 0.35876933 -0.066743694 0.19182599 0.3269903 -0.91971505 0.22870187 1.2861441 -0.6185792 -0.2890301 -0.26061332 -0.88524085 -0.27016118 0.27587768 0.17282368 -0.50309616 0.19552718 -0.28115162 -0.06597282 -0.92566967 0.33233124 0.010463553 0.13567862 -0.34504822 -0.12901902 -0.10151785 -0.48245648 -0.162228 -0.5004695 0.19790743 0.7329175 0.020894457 0.14650273 -0.47242004 -0.27327442 0.62049514 -0.07295654 -0.25432426 -0.30931503 -0.9547076 0.043239485 -0.5672753 -0.36435828 0.0034003856 0.58261245 -0.21328385 -0.3896885 -0.36084172 0.353626 0.48048854 0.22709239 -0.48294494 -0.1721619 -0.058801115 -0.39092734 0.26863912 0.29507715 -0.2521696 -0.31312352 0.16987899 0.105315134 0.24145614 0.040675063 -0.30237946 -0.4625793 0.5218235 0.4226298 0.4894311 -0.8125348 0.58064914 -0.31805786 0.30640393 0.57525855 -0.10576292 0.51853585 0.21835938 0.061864004 0.010649393 -0.4700824 -0.05469755 -0.3905361 -0.19077574 -0.45466825 0.6758356 -0.20483404 -0.10133158 0.16330002 0.44987428 0.5419223 0.15625693 0.7725839 0.32870668 0.25819987 0.21558912 1.0490289 0.33263397 0.42710507 -0.50558794 0.19208547 -0.1480598
소녀 -0.30899853 0.32224908 -0.065742016 0.15880165 0.28217682 -0.79484904 0.19186877 1.1206529 -0.54390925 -0.25384724 -0.20924808 -0.77040577 -0.23580237 0.23914082 0.15792534 -0.44976258 0.17822947 -0.24561277 -0.042920712 -0.81504625 0.2856253 -0.0015450927 0.11856532 -0.31469676 -0.11410776 -0.09996242 -0.41798928 -0.1555214 -0.4470086 0.17196938 0.636319 0.0017362073 0.13505374 -0.4236643 -0.22930309 0.5380944 -0.072115935 -0.22592619 -0.2699983 -0.8260665 0.036106803 -0.50323343 -0.31684014 -0.009197668 0.50252557 -0.18486397 -0.345648 -0.31198367 0.31476173 0.42135295 0.19906889 -0.4280366 -0.1663011 -0.03171189 -0.3304453 0.24371657 0.26068786 -0.22694191 -0.25849146 0.14997268 0.095440894 0.20718785 0.03155031 -0.255795 -0.40813398 0.46092692 0.37523466 0.42178327 -0.70956147 0.5251033 -0.27783486 0.2587416 0.50453824 -0.088834435 0.4495971 0.17880969 0.043281037 0.01641769 -0.41076148 -0.035134394 -0.34882554 -0.16080363 -0.39745662 0.60495305 -0.19388199 -0.093345046 0.12565763 0.40372494 0.4990883 0.14819282 0.6810066 0.28366682 0.20809051 0.1912037 0.90332454 0.29092407 0.37626478 -0.44639546 0.16121124 -0.13073325
눈 -0.3041715 0.29183006 -0.06357538 0.17338622 0.27792084 -0.7845321 0.1899748 1.0974269 -0.5376845 -0.25253284 -0.21732698 -0.75805265 -0.22305872 0.23325227 0.1621494 -0.4272497 0.17815857 -0.22951573 -0.06207909 -0.7739094 0.28304088 0.0010708336 0.10212707 -0.29739836 -0.10037562 -0.081653975 -0.42129228 -0.14413503 -0.44240192 0.17838597 0.6108869 0.020285726 0.11357121 -0.4177908 -0.23628317 0.53728926 -0.07889963 -0.22897142 -0.27379844 -0.8137663 0.022685476 -0.48501197 -0.30056983 -0.01038251 0.48517165 -0.18545924 -0.32758465 -0.3051704 0.3005392 0.41396984 0.20781101 -0.4324015 -0.14609364 -0.053197645 -0.33618 0.22994705 0.2562502 -0.21280235 -0.25926122 0.15579166 0.08909424 0.19330108 0.032960948 -0.2586863 -0.39984867 0.4693508 0.34615856 0.41906708 -0.6789384 0.50179803 -0.2717242 0.25376567 0.4850359 -0.099132046 0.4494182 0.17348944 0.047258765 0.017507697 -0.39355484 -0.05680665 -0.34390244 -0.15760255 -0.38453618 0.5776741 -0.18416557 -0.08027699 0.1316641 0.38731083 0.48416752 0.13196635 0.67492867 0.268266 0.21277371 0.18887004 0.8809942 0.2929895 0.3679102 -0.4429532 0.16822673 -0.13933592
학교 -0.35673672 0.34502646 -0.054954275 0.19645327 0.30435494 -0.8831144 0.21279898 1.2429655 -0.5945882 -0.28464216 -0.24284285 -0.8607717 -0.24998112 0.27125657 0.17000614 -0.48735628 0.20183188 -0.27771363 -0.059396364 -0.8853653 0.31655526 -0.009487611 0.12815125 -0.33178148 -0.120216876 -0.085398376 -0.4796426 -0.14895207 -0.50012434 0.18591067 0.69585276 0.018029597 0.13600421 -0.45989013 -0.25597733 0.61257696 -0.06605042 -0.26540092 -0.31026134 -0.92339516 0.021760797 -0.54586 -0.34815755 -0.007947618 0.5554178 -0.22078975 -0.38583106 -0.33896476 0.35570478 0.4668367 0.22185938 -0.4742125 -0.18223004 -0.05260493 -0.37500057 0.26209196 0.28856176 -0.24957494 -0.3048203 0.16301785 0.10393787 0.22425622 0.051653683 -0.27161586 -0.45939046 0.5098063 0.4104439 0.47749248 -0.7676099 0.5853628 -0.2915979 0.29177985 0.5560571 -0.097884476 0.51487184 0.21833952 0.047139652 0.006842769 -0.43796209 -0.04594731 -0.3845171 -0.17201485 -0.43039745 0.6517846 -0.21607257 -0.104554 0.15472656 0.4477858 0.5376411 0.16273575 0.7659641 0.32848215 0.24827255 0.2096304 1.0100354 0.3299205 0.4102402 -0.4910619 0.17966712 -0.14707592
주인공 -0.33760834 0.33536547 -0.065264635 0.17903969 0.29779598 -0.83938366 0.1955099 1.1859262 -0.5749389 -0.26819935 -0.22832482 -0.8084494 -0.23577867 0.24649604 0.17081863 -0.4646216 0.19665247 -0.2700609 -0.051519595 -0.85653466 0.30065107 0.004049805 0.12005925 -0.32919696 -0.12166254 -0.08758577 -0.45652 -0.1504325 -0.46743026 0.18163179 0.6716918 0.024307648 0.118978545 -0.45869967 -0.2393287 0.5879386 -0.07817506 -0.25445953 -0.29156712 -0.8828614 0.031256493 -0.5177005 -0.3363699 -0.015393736 0.5402776 -0.20202455 -0.36970785 -0.32623428 0.31809497 0.43292877 0.21281113 -0.455287 -0.16944815 -0.03673043 -0.34658796 0.2543394 0.26545224 -0.22504185 -0.29300293 0.16911602 0.09424586 0.21093261 0.04860784 -0.2725187 -0.43802154 0.49156973 0.39322615 0.4542952 -0.7361576 0.555512 -0.29048514 0.2896837 0.5213866 -0.10581022 0.4729225 0.20429522 0.05259476 0.012298416 -0.41778204 -0.058261596 -0.37171087 -0.16879217 -0.42781964 0.6395798 -0.20183438 -0.09550247 0.1457389 0.43491304 0.51689017 0.15983234 0.7174775 0.30101335 0.23838621 0.20052306 0.96110034 0.3034655 0.39738095 -0.4668024 0.19268197 -0.14404602
되어 -0.32578525 0.32914513 -0.07369756 0.18025406 0.30528864 -0.8618677 0.21586198 1.1969475 -0.5917515 -0.25465775 -0.22950587 -0.8318905 -0.25466448 0.25514907 0.17094563 -0.466269 0.1982733 -0.26331848 -0.05884747 -0.86411107 0.30384743 0.009523457 0.11234881 -0.3361454 -0.12576161 -0.081361935 -0.451161 -0.15405703 -0.4763645 0.1835243 0.69870067 0.011080822 0.14199089 -0.46088645 -0.23699307 0.6075674 -0.06441983 -0.2467308 -0.29953077 -0.9014258 0.04191928 -0.54501367 -0.3495581 -0.004410435 0.5389481 -0.19848733 -0.38113287 -0.32178593 0.34224355 0.43894228 0.22478978 -0.47425434 -0.16398181 -0.033852194 -0.36987948 0.27122015 0.28586206 -0.22802259 -0.3020551 0.15637459 0.08336138 0.22169212 0.04044992 -0.26704064 -0.4375764 0.514104 0.395657 0.45770285 -0.75113493 0.56824076 -0.30414674 0.27677155 0.54132855 -0.10005816 0.4889359 0.19011587 0.05559474 0.022296665 -0.42477384 -0.04463727 -0.38363183 -0.18027343 -0.43155733 0.63611555 -0.22104962 -0.09107719 0.14581564 0.4406267 0.52935743 0.16642433 0.7297449 0.320707 0.23234923 0.20136 0.9745697 0.30934572 0.39274725 -0.4877662 0.19681062 -0.1416472
사건 -0.33218923 0.32844743 -0.04574849 0.17103823 0.3008152 -0.834816 0.20552102 1.1725427 -0.5770458 -0.24887659 -0.23238708 -0.81518 -0.23758069 0.24364996 0.17158441 -0.46716338 0.18901524 -0.25223577 -0.061190795 -0.8482673 0.31338257 0.0017451426 0.11219158 -0.31971687 -0.1253878 -0.09815288 -0.4404707 -0.1461328 -0.4769819 0.18340078 0.67069626 0.0053550187 0.12904797 -0.4472068 -0.25478473 0.5782885 -0.061369065 -0.24044782 -0.28493428 -0.8660703 0.027890796 -0.5297186 -0.3303571 0.002712222 0.53213435 -0.20096606 -0.3510577 -0.31767213 0.31707394 0.44480273 0.22589351 -0.46571603 -0.16036491 -0.055198736 -0.35450324 0.25684512 0.2628047 -0.24038182 -0.29231587 0.14560528 0.08274546 0.22159185 0.04683857 -0.27836016 -0.41686538 0.4972082 0.39171112 0.45819557 -0.7448625 0.54322624 -0.282975 0.28104627 0.5359688 -0.10788436 0.4861225 0.20990664 0.044163667 0.022948164 -0.4176378 -0.051932316 -0.3677697 -0.18332273 -0.4239068 0.63104004 -0.20537841 -0.07624679 0.13135794 0.41180915 0.5195375 0.16169886 0.7219474 0.31128892 0.23658605 0.18668431 0.9647526 0.2939041 0.38882762 -0.47572708 0.18740477 -0.14805835
삶 -0.3101238 0.31002676 -0.054673117 0.16443245 0.27995458 -0.79951715 0.19492725 1.1232126 -0.54818434 -0.24460608 -0.229243 -0.75602144 -0.22667728 0.23216994 0.15806013 -0.4341681 0.18148164 -0.24583413 -0.06430754 -0.812037 0.29142654 0.008336127 0.107621506 -0.30855843 -0.10834009 -0.08144785 -0.43469027 -0.13420756 -0.45269454 0.17955394 0.6260644 0.022235926 0.11496233 -0.42827335 -0.23302154 0.5475678 -0.067323856 -0.2282801 -0.27176937 -0.83033127 0.024028247 -0.50518495 -0.30612028 -0.004400344 0.51509565 -0.18758267 -0.3506807 -0.29919297 0.308594 0.41929296 0.20371653 -0.4343515 -0.15720323 -0.0443054 -0.34458545 0.24378648 0.25935948 -0.21310022 -0.27715728 0.15749063 0.08485989 0.19394876 0.034427196 -0.25231072 -0.40061548 0.4741848 0.37421337 0.43467945 -0.7064248 0.52048725 -0.26218176 0.27294493 0.5114456 -0.08745987 0.4586064 0.18781456 0.042812336 0.022784675 -0.3925322 -0.052232634 -0.35003725 -0.15452844 -0.3950129 0.6041951 -0.18616796 -0.08451603 0.1442809 0.4107933 0.48964465 0.143863 0.69942224 0.29388252 0.21277224 0.18223552 0.904091 0.2939705 0.37152475 -0.45477432 0.17412677 -0.12660731
소년 -0.29945457 0.30755216 -0.05150239 0.1727393 0.28389964 -0.7662092 0.18472521 1.0923532 -0.53237724 -0.22858137 -0.21881127 -0.73308325 -0.23337997 0.22981942 0.16364662 -0.4332865 0.17329869 -0.23134722 -0.041831966 -0.7832419 0.2757777 0.0134608615 0.10315159 -0.2986783 -0.099163994 -0.09584573 -0.41935083 -0.14988352 -0.4328134 0.1730767 0.6058182 0.009354217 0.13084343 -0.41614193 -0.22031793 0.5366905 -0.068018064 -0.22988185 -0.25827307 -0.8050021 0.038435522 -0.48384234 -0.30242482 -0.00013027535 0.48826212 -0.18091142 -0.34275925 -0.28832445 0.3023682 0.4005806 0.20381616 -0.40767342 -0.16238798 -0.038725607 -0.32181603 0.23151469 0.253663 -0.20243756 -0.25168365 0.14029875 0.082705416 0.20652282 0.03612003 -0.25792795 -0.40067804 0.4458866 0.35566825 0.41516787 -0.68828696 0.50283545 -0.25559646 0.26323998 0.49120906 -0.09167352 0.4512904 0.17217222 0.058451228 0.014629043 -0.40179583 -0.052276954 -0.34167996 -0.14995603 -0.38282025 0.5711718 -0.18597117 -0.08555388 0.12452827 0.40108064 0.48316443 0.13916533 0.66901636 0.28128922 0.20145132 0.18429013 0.89264774 0.28410175 0.3649059 -0.43481117 0.16838215 -0.13895655
평범한 -0.31566682 0.3231246 -0.05670592 0.17331083 0.29075515 -0.8130967 0.20003417 1.1568581 -0.54946005 -0.24999295 -0.23014149 -0.79478335 -0.24344067 0.24127626 0.17129306 -0.44184494 0.18819845 -0.255249 -0.046814594 -0.82502115 0.29799372 0.013824019 0.12749761 -0.3163167 -0.11773905 -0.08143713 -0.42534152 -0.13755845 -0.45966744 0.18458351 0.6610801 0.0036393553 0.1367021 -0.4334734 -0.24424721 0.5661333 -0.0582307 -0.2425083 -0.27286804 -0.8514235 0.020913944 -0.50266266 -0.327391 -0.00229927 0.52100563 -0.18711923 -0.34828645 -0.32422408 0.32287145 0.41348127 0.21017492 -0.43047503 -0.16954997 -0.037043802 -0.34967637 0.24166015 0.27443594 -0.21829629 -0.26974726 0.15783405 0.08992297 0.20889866 0.030654572 -0.25247127 -0.422518 0.48146862 0.36224023 0.4351325 -0.71082324 0.53179085 -0.28686592 0.26387602 0.5025484 -0.087865196 0.46138284 0.19122678 0.04264189 0.009340177 -0.41639686 -0.039466903 -0.35489893 -0.16171259 -0.39419058 0.61415184 -0.18703635 -0.07819781 0.1394812 0.41961962 0.48949185 0.14617443 0.70716745 0.28420612 0.22484218 0.18196093 0.9382031 0.29715317 0.3794104 -0.45838863 0.18100803 -0.14671972
인생 -0.3228826 0.3199763 -0.05896695 0.16892892 0.29316622 -0.7947288 0.20284389 1.1343423 -0.5368769 -0.25519264 -0.21613383 -0.75957966 -0.2328839 0.24307048 0.16163689 -0.44546643 0.19279037 -0.24367167 -0.049119774 -0.81367713 0.30246666 -0.003753161 0.11234785 -0.3075299 -0.09859835 -0.093790315 -0.42166138 -0.14575577 -0.4557863 0.16872673 0.6300759 0.02086965 0.120041944 -0.42866325 -0.2303751 0.5587375 -0.057280496 -0.2411055 -0.27700496 -0.82971597 0.026239889 -0.4998331 -0.30744663 -0.0093275495 0.517186 -0.1912482 -0.34775606 -0.30109853 0.32196623 0.41668904 0.2068501 -0.42625377 -0.16431485 -0.035805337 -0.33935478 0.23972735 0.26779562 -0.2230992 -0.2684858 0.14486858 0.09083865 0.20915854 0.043104425 -0.2646334 -0.41587818 0.47424984 0.36756825 0.42581818 -0.7066566 0.5206995 -0.2839204 0.26543662 0.49950412 -0.093008645 0.46144307 0.1886751 0.044557832 0.01514799 -0.40968546 -0.047342807 -0.34943083 -0.15534796 -0.40518522 0.60275316 -0.18344994 -0.07069483 0.14023928 0.3964388 0.49869177 0.15387657 0.69590247 0.29191488 0.21675874 0.19151539 0.9198019 0.30135247 0.36951855 -0.45782432 0.17849095 -0.14453696
연애 -0.3061374 0.3055093 -0.054182652 0.16103855 0.27943146 -0.7857062 0.19111833 1.0877463 -0.5352102 -0.23375212 -0.21615088 -0.7430265 -0.21939424 0.22205816 0.17267574 -0.43446922 0.17826176 -0.22842938 -0.049902584 -0.7812436 0.29023957 0.003125955 0.12093266 -0.28969517 -0.10692517 -0.085320845 -0.40890604 -0.15004921 -0.42674124 0.17076148 0.62635094 0.018311935 0.11960142 -0.41189635 -0.22892413 0.545461 -0.06212049 -0.21809974 -0.27376643 -0.81369513 0.037702505 -0.48248324 -0.31101212 -0.017888151 0.4834873 -0.18811145 -0.3478785 -0.2990417 0.30954787 0.39272535 0.19861415 -0.42425647 -0.1600318 -0.041061036 -0.33781764 0.2353192 0.2442486 -0.21806695 -0.26119983 0.15127543 0.09534481 0.20489575 0.030274048 -0.2560512 -0.38875002 0.4587402 0.36007327 0.4083338 -0.68349284 0.50094134 -0.27538112 0.26406178 0.48474836 -0.08148809 0.43487486 0.19027252 0.047574144 0.024124747 -0.39522392 -0.047416236 -0.33318356 -0.16860959 -0.39473653 0.5875468 -0.19701836 -0.0740416 0.1347082 0.38737234 0.48161483 0.14070839 0.67983603 0.28209072 0.20560582 0.1792587 0.89034146 0.27705643 0.37273479 -0.43584752 0.15921591 -0.13822414
하는데 -0.2902557 0.27968144 -0.049384758 0.15117042 0.27717227 -0.74671125 0.17330483 1.0481188 -0.49509147 -0.22346708 -0.21114214 -0.70762044 -0.22099732 0.21868315 0.14697619 -0.40841037 0.1653479 -0.22708963 -0.05538616 -0.74153894 0.27757606 0.008702465 0.113325536 -0.27846983 -0.094950505 -0.0728135 -0.40316117 -0.1320923 -0.41635984 0.16643876 0.5848308 0.01241215 0.122873604 -0.3997091 -0.2232324 0.51960856 -0.06500781 -0.21036221 -0.2619401 -0.76205564 0.027547585 -0.46081457 -0.29134986 -0.0076973108 0.4722977 -0.19260038 -0.32020214 -0.29477558 0.3059197 0.3909151 0.18369907 -0.40423712 -0.15577766 -0.026824044 -0.30515972 0.23187257 0.2530953 -0.2109918 -0.24769497 0.13642883 0.0745024 0.18580431 0.036255427 -0.2401628 -0.38451466 0.43656042 0.34204164 0.38595572 -0.6436934 0.48541018 -0.26512733 0.24358328 0.4610509 -0.08107695 0.42370975 0.18066348 0.05356312 0.013033261 -0.38326034 -0.047408566 -0.31523722 -0.1531159 -0.36809158 0.55729306 -0.18724546 -0.07171018 0.11767858 0.38677472 0.44655517 0.1407784 0.6383088 0.26414272 0.20153509 0.17257608 0.8494491 0.2714334 0.34372884 -0.40663123 0.15023439 -0.13499711
후 -0.34330574 0.3396142 -0.061354123 0.17507909 0.3080333 -0.85941035 0.21288602 1.2115816 -0.57002884 -0.26505363 -0.2337114 -0.8151922 -0.23363875 0.2524185 0.17301796 -0.4752341 0.19184136 -0.2560594 -0.05243916 -0.86352015 0.31695932 -0.007425143 0.12076298 -0.33950725 -0.107206754 -0.09042481 -0.45865417 -0.14379165 -0.4784327 0.17431971 0.67328966 0.009617897 0.12587126 -0.44370508 -0.24092005 0.5924215 -0.07346468 -0.25561637 -0.2884171 -0.89275426 0.028567035 -0.5401854 -0.3406952 -0.017982084 0.5433126 -0.21430406 -0.36258858 -0.33707735 0.32958177 0.4443451 0.21260451 -0.4580227 -0.1778205 -0.042167027 -0.35287255 0.26554903 0.2771897 -0.22578606 -0.2893772 0.16881526 0.09870172 0.20740774 0.044491485 -0.28491956 -0.43765748 0.50858384 0.38828105 0.45016494 -0.7449434 0.56605816 -0.28638 0.27595463 0.5452096 -0.093249984 0.48208264 0.19920377 0.05481966 0.003069856 -0.43449578 -0.03674009 -0.3765096 -0.18274565 -0.4302769 0.6296719 -0.20517036 -0.08311187 0.14422399 0.42723045 0.5350862 0.14437579 0.7297697 0.2963561 0.2418624 0.19708519 0.9681637 0.30284044 0.40862668 -0.47944954 0.17813674 -0.14271434
판타지 -0.29697663 0.3034904 -0.0452687 0.14908996 0.2582909 -0.7358407 0.1670838 1.0521622 -0.49916774 -0.21574841 -0.21391778 -0.7123605 -0.22713529 0.23533408 0.1702551 -0.41171813 0.15850332 -0.22375314 -0.045418292 -0.7490372 0.2694873 0.0041103517 0.106999345 -0.28159016 -0.1114086 -0.09421555 -0.39510038 -0.13718338 -0.4029756 0.16001244 0.59357244 0.0036101334 0.10215408 -0.39266193 -0.21023771 0.50001657 -0.050697148 -0.20490977 -0.25204208 -0.77565247 0.025424438 -0.4520098 -0.30097172 -0.016818956 0.45654058 -0.17068042 -0.3405192 -0.28137198 0.30300742 0.38455838 0.17923966 -0.3908282 -0.14415835 -0.045647986 -0.30278495 0.24083845 0.2522926 -0.20247716 -0.2401393 0.13082957 0.07082996 0.19476807 0.026379928 -0.23982477 -0.3911793 0.4226231 0.33816284 0.39983281 -0.6481265 0.49659726 -0.25264797 0.23093487 0.45275182 -0.09426704 0.42295128 0.1570275 0.062555626 0.022365117 -0.38783693 -0.029620273 -0.3309754 -0.16076295 -0.36731035 0.57666606 -0.18464242 -0.08141667 0.118516654 0.39118665 0.46509382 0.12611796 0.6371497 0.26912808 0.20225424 0.17378713 0.8556656 0.26588354 0.3562431 -0.41038653 0.1608656 -0.12286109
과 -0.33560076 0.343743 -0.062130217 0.1860483 0.30634567 -0.85971963 0.21915802 1.2052901 -0.5761417 -0.2624573 -0.22786744 -0.8184455 -0.24510592 0.26083773 0.17511521 -0.46439353 0.19742823 -0.25547743 -0.061429095 -0.86969054 0.30385545 -0.0029348596 0.12360363 -0.32850036 -0.11709747 -0.09130388 -0.45029664 -0.15976487 -0.47178593 0.19342627 0.6888537 0.0169387 0.13556752 -0.45133877 -0.25706354 0.58021057 -0.068552636 -0.24746917 -0.290616 -0.8939931 0.036280885 -0.5368663 -0.3310346 -0.009501139 0.53581464 -0.20449054 -0.37194887 -0.3324443 0.33118588 0.45385253 0.20913531 -0.4603139 -0.17788771 -0.03420068 -0.35412768 0.26259238 0.27508795 -0.23669796 -0.2968841 0.16142908 0.099829756 0.20594811 0.04736293 -0.26667196 -0.43136495 0.49522334 0.39719462 0.44693246 -0.7526801 0.568799 -0.2882651 0.2803464 0.536403 -0.11130939 0.48723027 0.20528615 0.047661733 0.020573203 -0.43688428 -0.04198959 -0.3681006 -0.17304859 -0.4276807 0.6282781 -0.21226333 -0.08933459 0.13235958 0.440073 0.5289384 0.15303439 0.74627763 0.30378905 0.233802 0.20004559 0.98378587 0.31345615 0.39394268 -0.4835367 0.17644104 -0.14140643
비밀 -0.27266806 0.28376225 -0.04252051 0.14081234 0.259312 -0.7191004 0.174587 0.9957281 -0.46987322 -0.23010364 -0.19161038 -0.6915354 -0.20412758 0.22001307 0.13023402 -0.37799233 0.15381294 -0.20760256 -0.055360988 -0.720681 0.24671973 0.0075498144 0.098812886 -0.27123424 -0.10817536 -0.064219974 -0.37718573 -0.13123044 -0.40141997 0.16084279 0.5666703 0.004084547 0.11821807 -0.38151142 -0.20637222 0.49817687 -0.059849244 -0.20498815 -0.2382382 -0.74371356 0.03036265 -0.4405441 -0.28966427 -0.01108565 0.4574673 -0.16696851 -0.29658416 -0.27431545 0.28613412 0.3613548 0.18855059 -0.39536744 -0.14044912 -0.026558604 -0.30343935 0.223012 0.22093321 -0.19610652 -0.23466076 0.13059865 0.08595975 0.17050073 0.03539312 -0.21636759 -0.3532206 0.4161786 0.33341387 0.3678099 -0.6269208 0.466113 -0.24376988 0.24365912 0.4594881 -0.08730618 0.4049157 0.1809343 0.038186528 0.0012958605 -0.35799608 -0.0463751 -0.3089117 -0.142894 -0.3617102 0.52931184 -0.17634884 -0.07825309 0.12300888 0.3624306 0.43368557 0.1373218 0.611388 0.26569638 0.19851245 0.16947988 0.82347494 0.25264695 0.33089307 -0.4001678 0.15845405 -0.127313
웹툰 -0.30718267 0.31308985 -0.059491377 0.1665385 0.2734402 -0.77980375 0.1918877 1.0937994 -0.5190266 -0.22755004 -0.22891517 -0.7630759 -0.23054025 0.24007294 0.16217038 -0.4205116 0.16762567 -0.25045234 -0.038353212 -0.79547185 0.28654873 0.020316774 0.12679711 -0.3035726 -0.119636804 -0.08451836 -0.4020149 -0.14257452 -0.428727 0.16412513 0.63617706 0.010828954 0.12607743 -0.4049141 -0.23455904 0.5461719 -0.06814041 -0.23987135 -0.26512465 -0.8052893 0.03655582 -0.5027823 -0.29482824 -0.02317172 0.48425868 -0.18264143 -0.35289815 -0.2950602 0.29898575 0.39520776 0.20684186 -0.4233519 -0.14230083 -0.04414281 -0.32802394 0.24773245 0.26545468 -0.20836248 -0.2830004 0.14259718 0.08835603 0.20303926 0.024732826 -0.24237257 -0.39273143 0.44640514 0.36000225 0.41606468 -0.6862478 0.51366526 -0.2658104 0.24761534 0.48779088 -0.096557535 0.45694897 0.18973537 0.046454407 0.015070903 -0.38447464 -0.041932005 -0.35484076 -0.17048888 -0.39434478 0.6006973 -0.18611915 -0.083784066 0.13624215 0.39959446 0.47718874 0.13968742 0.68532723 0.28228453 0.2127398 0.17505054 0.8925495 0.28583354 0.3685781 -0.4378592 0.17345934 -0.13325454
집 -0.29067552 0.29819727 -0.05133101 0.16232054 0.27635306 -0.74731576 0.17595103 1.0654249 -0.5179533 -0.23258108 -0.22099479 -0.73631454 -0.21770096 0.23089534 0.15204027 -0.41898638 0.16598517 -0.22094147 -0.040349707 -0.7502039 0.27495778 -0.007807029 0.11883518 -0.2944457 -0.0996605 -0.07543168 -0.39356092 -0.13505974 -0.42799494 0.16431104 0.60332036 0.015222018 0.11592957 -0.3871359 -0.21751554 0.5133257 -0.0540324 -0.223777 -0.26345834 -0.77271324 0.021350915 -0.46299905 -0.3038144 -0.017257351 0.46573246 -0.17974864 -0.31807604 -0.28436413 0.30029196 0.39686546 0.19303496 -0.41450673 -0.1394927 -0.04657795 -0.31030563 0.23109859 0.2439675 -0.2073398 -0.24609736 0.13505037 0.08547843 0.19013086 0.03671152 -0.24581681 -0.39405596 0.4296475 0.3353208 0.39961746 -0.6668726 0.50141966 -0.25395662 0.23916991 0.4711318 -0.09645536 0.42136607 0.17733993 0.048049547 0.021299142 -0.37437436 -0.042615198 -0.32066545 -0.16065252 -0.3862642 0.5648454 -0.18828978 -0.08396985 0.12770945 0.37310153 0.45894542 0.13829783 0.6511989 0.26903936 0.20545438 0.18670401 0.86278087 0.2736718 0.3434851 -0.42647156 0.15872997 -0.13437897
안 -0.33390304 0.32022032 -0.06108854 0.17058997 0.28961295 -0.822806 0.20953482 1.1603837 -0.5498563 -0.24638559 -0.22586069 -0.79055184 -0.22814506 0.24698076 0.178389 -0.46539828 0.19118832 -0.24722403 -0.044370078 -0.833232 0.3131085 0.0068780906 0.11422516 -0.30691388 -0.116154954 -0.079629526 -0.44665936 -0.15325154 -0.4553178 0.17790899 0.65086603 0.015739916 0.11979488 -0.42916423 -0.22938356 0.5646335 -0.06417322 -0.239563 -0.2810419 -0.8503221 0.020530809 -0.5130323 -0.33310175 -0.00061302993 0.5110784 -0.18924262 -0.35635912 -0.3090888 0.32965302 0.4403421 0.2122191 -0.44347388 -0.16347465 -0.044591818 -0.3513133 0.26008457 0.2754687 -0.21639152 -0.2757049 0.15938175 0.088000536 0.20978156 0.035056364 -0.2707097 -0.4331559 0.4842757 0.36809114 0.4483152 -0.729689 0.5375469 -0.2892161 0.2824615 0.5273426 -0.096357636 0.46960276 0.18940994 0.049675394 0.024644515 -0.42649272 -0.037394408 -0.3582023 -0.1597523 -0.4076523 0.62303776 -0.19434533 -0.08245768 0.12955627 0.41426542 0.5081592 0.14982931 0.7169468 0.29409426 0.22439322 0.19530374 0.9424832 0.31162515 0.39228794 -0.45744738 0.17722057 -0.15127468
하기 -0.27700505 0.27301952 -0.044184033 0.14665005 0.26777494 -0.6995228 0.19052075 1.0047586 -0.4950636 -0.2254243 -0.2081207 -0.67614925 -0.18785957 0.22289236 0.14292268 -0.3927194 0.15643455 -0.2046878 -0.041037656 -0.7220852 0.27745917 -0.01743273 0.096754946 -0.2645732 -0.090908274 -0.090882115 -0.36797678 -0.13040099 -0.40075096 0.15637302 0.5568535 0.022494981 0.100321725 -0.3852921 -0.1945143 0.5071549 -0.04798586 -0.20006685 -0.2454494 -0.75113565 0.025981128 -0.4469235 -0.27484274 0.0022230607 0.46111462 -0.17425714 -0.32047093 -0.26669648 0.29359677 0.36506957 0.18911102 -0.37609375 -0.14941445 -0.032846205 -0.31161356 0.20411393 0.22406016 -0.2054193 -0.24915582 0.14460437 0.07019142 0.19203612 0.039000843 -0.23064792 -0.37746108 0.4109274 0.33347148 0.39117333 -0.6324315 0.47752467 -0.24961434 0.25013533 0.4468747 -0.08908641 0.4147808 0.1612193 0.05579271 0.0047321385 -0.3559519 -0.0351438 -0.30006644 -0.14844003 -0.3573784 0.5270106 -0.16777869 -0.0780991 0.13129404 0.36770824 0.4497687 0.13494575 0.6091742 0.2659662 0.18694511 0.17592207 0.809601 0.26014462 0.3336855 -0.40002766 0.16146325 -0.12138803
일상 -0.3043238 0.30130315 -0.04752538 0.1534957 0.27154377 -0.74861276 0.18747304 1.0502584 -0.49985296 -0.22206971 -0.21135892 -0.7290951 -0.21476966 0.22794141 0.14502738 -0.42226365 0.17331374 -0.22973074 -0.05475229 -0.7600436 0.28379148 0.012295407 0.10048944 -0.29584903 -0.10310838 -0.083699964 -0.39802969 -0.14162078 -0.4268075 0.15805645 0.60148835 0.01793781 0.106671914 -0.40579683 -0.22337432 0.5171852 -0.07190068 -0.21729141 -0.24895884 -0.7864821 0.023267863 -0.4578569 -0.28780517 -0.005947104 0.4663477 -0.18991052 -0.33086762 -0.2868953 0.30037054 0.38627982 0.201739 -0.4114335 -0.14613326 -0.033171836 -0.3204052 0.2360029 0.23752171 -0.19955926 -0.26481405 0.13997859 0.07829744 0.19595471 0.039237425 -0.24961355 -0.38675156 0.43065527 0.3337822 0.3990989 -0.64888555 0.48118842 -0.2459378 0.25244898 0.46379974 -0.09063875 0.42848438 0.18276827 0.04815462 0.025579011 -0.38206294 -0.04890317 -0.33786836 -0.14689836 -0.37543398 0.5522903 -0.18650194 -0.07678591 0.1338654 0.37694275 0.46304137 0.13534674 0.6534054 0.27481008 0.19656275 0.16378684 0.8487193 0.27393356 0.35360157 -0.40947235 0.16390234 -0.118286446
결혼 -0.30125442 0.30116624 -0.04690974 0.16454989 0.27798653 -0.7834375 0.17996705 1.0815103 -0.53740734 -0.2259672 -0.22773348 -0.7558588 -0.21518701 0.24252895 0.16438405 -0.43465024 0.18663026 -0.22971007 -0.054817107 -0.7889689 0.28564748 -0.009640616 0.11587113 -0.2932347 -0.10875462 -0.0770157 -0.40857872 -0.12741521 -0.44507477 0.17276835 0.6163591 0.020568071 0.12211097 -0.41926146 -0.22442049 0.5218818 -0.05736766 -0.22960399 -0.26980406 -0.7956792 0.021713374 -0.49309108 -0.31033874 -0.017643247 0.49548194 -0.19823648 -0.34390664 -0.3104538 0.31816635 0.39900187 0.18993819 -0.41981855 -0.15825655 -0.029709047 -0.33116317 0.23242389 0.24532591 -0.2238612 -0.25303838 0.15862419 0.09011175 0.18820979 0.03663645 -0.24022165 -0.403673 0.46465567 0.35949942 0.411094 -0.6901981 0.5182812 -0.26561075 0.25607672 0.4927672 -0.100678064 0.43226764 0.1894826 0.05353667 0.016512139 -0.37913996 -0.045372825 -0.34397537 -0.16871068 -0.3806155 0.5778678 -0.18101041 -0.07709648 0.121429004 0.3939628 0.4873932 0.13402264 0.6703124 0.27423954 0.21921833 0.17571895 0.8782249 0.2745186 0.35716107 -0.43264353 0.16398828 -0.13275033
생활 -0.30023807 0.31485164 -0.04705878 0.17018874 0.286565 -0.7895038 0.19370249 1.1134568 -0.5420411 -0.23823504 -0.2240188 -0.7474164 -0.2154898 0.23027027 0.16422516 -0.43906298 0.17179413 -0.23740558 -0.048584055 -0.80111325 0.293557 0.0025776473 0.10550484 -0.30634207 -0.10802573 -0.077558845 -0.4145352 -0.13473131 -0.44086212 0.16331899 0.6290087 0.027715277 0.13518836 -0.4117515 -0.22386535 0.5510876 -0.072324164 -0.2305123 -0.27575886 -0.8229529 0.035140935 -0.48371378 -0.3111908 -0.017888904 0.492882 -0.20158133 -0.35243958 -0.3018106 0.31376293 0.40389198 0.19401187 -0.42646694 -0.16096778 -0.040523145 -0.32634124 0.2410133 0.2462489 -0.20849861 -0.2585227 0.14424422 0.096722476 0.20541526 0.035370976 -0.2523939 -0.39611632 0.4693749 0.3682551 0.41117194 -0.68813974 0.50964934 -0.27928066 0.256986 0.49171764 -0.09998057 0.45400023 0.18072143 0.054519914 0.012758134 -0.39328283 -0.03481863 -0.33564413 -0.15671755 -0.39568835 0.5985631 -0.18492909 -0.07990222 0.14271936 0.39721763 0.49038976 0.13416967 0.687162 0.29441595 0.20609078 0.18575732 0.9050166 0.2807569 0.3610889 -0.44399706 0.17263374 -0.13426618
중 -0.3248926 0.3308951 -0.052598026 0.17125355 0.29960626 -0.8511578 0.20942247 1.1939155 -0.5635034 -0.25339723 -0.23247509 -0.82330555 -0.23470335 0.2509337 0.16618995 -0.46996653 0.19199008 -0.26439714 -0.048977315 -0.84938765 0.3111966 0.002139575 0.119002625 -0.33502904 -0.12352001 -0.094315745 -0.4625751 -0.15245004 -0.47124314 0.17859255 0.68297696 0.018068276 0.13426033 -0.4433536 -0.24668798 0.5771999 -0.06853245 -0.2500339 -0.28393957 -0.8905007 0.032615934 -0.5316752 -0.33456442 -0.0012469462 0.5466887 -0.19817999 -0.36145425 -0.31832826 0.3368334 0.4387563 0.21573633 -0.4689451 -0.1721089 -0.051492963 -0.35271123 0.26093227 0.28574067 -0.24066791 -0.2947813 0.16389278 0.09347966 0.20807719 0.044545796 -0.27144647 -0.42914408 0.49233454 0.39019603 0.44653663 -0.7399919 0.5621823 -0.29595712 0.26953164 0.53000784 -0.09326844 0.47558287 0.18993087 0.06062149 0.004818758 -0.4352969 -0.054093603 -0.37510404 -0.1652581 -0.4288094 0.64507365 -0.1954931 -0.09857116 0.14727221 0.4272804 0.5243911 0.15669867 0.7340923 0.2994598 0.23644388 0.20360982 0.9755148 0.30584726 0.38923818 -0.47789302 0.18284783 -0.15139098
대 -0.33348784 0.3316117 -0.05625151 0.16790578 0.30581126 -0.82850033 0.19532563 1.1848371 -0.5664971 -0.25311828 -0.2308213 -0.81533235 -0.24291885 0.258087 0.17632486 -0.46598086 0.20169774 -0.2659146 -0.05357413 -0.8518718 0.31348863 0.00015232284 0.12516078 -0.33347046 -0.11524804 -0.083077386 -0.43754545 -0.15300652 -0.47969174 0.18731126 0.6742776 0.015970757 0.12023496 -0.44674224 -0.24994904 0.57777447 -0.07427134 -0.24325779 -0.28097963 -0.8739439 0.028177852 -0.53057736 -0.32508132 -0.0027820342 0.5336914 -0.19976047 -0.36892548 -0.32148018 0.33725002 0.4350994 0.20569406 -0.45554826 -0.16250952 -0.03399009 -0.36183417 0.26612207 0.2701174 -0.2240784 -0.28365347 0.14728552 0.09673464 0.20954524 0.028822588 -0.2630395 -0.42485005 0.49116752 0.37604892 0.45250103 -0.73305565 0.54583997 -0.27889624 0.28634924 0.5291644 -0.10490125 0.47069708 0.19365257 0.05983104 0.011631035 -0.42629233 -0.039438713 -0.35964835 -0.18015486 -0.40946537 0.6386938 -0.19696805 -0.08292181 0.14703701 0.4190158 0.519039 0.15903592 0.72559863 0.29314986 0.22165108 0.19284768 0.95511 0.3117353 0.40451825 -0.47418335 0.17080379 -0.14136057
